{"learner":{"attributes":{"best_iteration":"99","best_ntree_limit":"100","scikit_learn":"{\"use_label_encoder\": false, \"n_estimators\": 100, \"objective\": \"binary:logistic\", \"max_depth\": 2, \"learning_rate\": 0.1, \"verbosity\": null, \"booster\": null, \"tree_method\": null, \"gamma\": null, \"min_child_weight\": 0.1, \"max_delta_step\": null, \"subsample\": null, \"colsample_bytree\": null, \"colsample_bylevel\": null, \"colsample_bynode\": null, \"reg_alpha\": null, \"reg_lambda\": null, \"scale_pos_weight\": null, \"base_score\": null, \"missing\": NaN, \"num_parallel_tree\": null, \"random_state\": null, \"n_jobs\": null, \"monotone_constraints\": null, \"interaction_constraints\": null, \"importance_type\": null, \"gpu_id\": null, \"validate_parameters\": null, \"predictor\": null, \"enable_categorical\": false, \"kwargs\": {\"eval_metric\": \"logloss\"}, \"classes_\": [0, 1], \"n_classes_\": 2, \"_estimator_type\": \"classifier\"}"},"feature_names":[],"feature_types":[],"gradient_booster":{"model":{"gbtree_model_param":{"num_trees":"100","size_leaf_vector":"0"},"tree_info":[0,0,0,0,0,0,0,0,0,0,0,0,0,0,0,0,0,0,0,0,0,0,0,0,0,0,0,0,0,0,0,0,0,0,0,0,0,0,0,0,0,0,0,0,0,0,0,0,0,0,0,0,0,0,0,0,0,0,0,0,0,0,0,0,0,0,0,0,0,0,0,0,0,0,0,0,0,0,0,0,0,0,0,0,0,0,0,0,0,0,0,0,0,0,0,0,0,0,0,0],"trees":[{"base_weights":[6.690141E-1,1.8068615E0,-1.875354E0,1.9252874E0,8.6315787E-1,-0E0,-1.9188405E0],"categories":[],"categories_nodes":[],"categories_segments":[],"categories_sizes":[],"default_left":[true,true,true,false,false,false,false],"id":0,"left_children":[1,3,5,-1,-1,-1,-1],"loss_changes":[8.2559766E2,2.0326782E1,7.1970215E0,0E0,0E0,0E0,0E0],"parents":[2147483647,0,0,1,1,2,2],"right_children":[2,4,6,-1,-1,-1,-1],"split_conditions":[6.154762E0,9.129548E-1,8.862611E-1,1.9252874E-1,8.631579E-2,-0E0,-1.9188406E-1],"split_indices":[4,5,5,0,0,0,0],"split_type":[0,0,0,0,0,0,0],"sum_hessian":[2.83E2,1.9575E2,8.725E1,1.73E2,2.275E1,2E0,8.525E1],"tree_param":{"num_deleted":"0","num_feature":"7","num_nodes":"7","size_leaf_vector":"0"}},{"base_weights":[6.0777754E-1,1.6417682E0,-1.7056335E0,1.7504833E0,7.8192115E-1,-0E0,-1.7455453E0],"categories":[],"categories_nodes":[],"categories_segments":[],"categories_sizes":[],"default_left":[true,true,true,false,false,false,false],"id":1,"left_children":[1,3,5,-1,-1,-1,-1],"loss_changes":[6.7636304E2,1.687024E1,5.9545135E0,0E0,0E0,0E0,0E0],"parents":[2147483647,0,0,1,1,2,2],"right_children":[2,4,6,-1,-1,-1,-1],"split_conditions":[6.154762E0,9.129548E-1,8.862611E-1,1.7504834E-1,7.8192115E-2,-0E0,-1.7455453E-1],"split_indices":[4,5,5,0,0,0,0],"split_type":[0,0,0,0,0,0,0],"sum_hessian":[2.8058444E2,1.9411436E2,8.647007E1,1.714067E2,2.2707678E1,2E0,8.447007E1],"tree_param":{"num_deleted":"0","num_feature":"7","num_nodes":"7","size_leaf_vector":"0"}},{"base_weights":[5.603225E-1,1.5460688E0,-1.5087644E0,1.6278526E0,8.7098503E-1,-1.5736825E0,4.3240705E-1],"categories":[],"categories_nodes":[],"categories_segments":[],"categories_sizes":[],"default_left":[true,true,true,false,false,false,false],"id":2,"left_children":[1,3,5,-1,-1,-1,-1],"loss_changes":[5.63901E2,8.905579E0,1.1940353E1,0E0,0E0,0E0,0E0],"parents":[2147483647,0,0,1,1,2,2],"right_children":[2,4,6,-1,-1,-1,-1],"split_conditions":[5.9545455E0,9.129548E-1,9.65E1,1.6278526E-1,8.70985E-2,-1.5736826E-1,4.3240707E-2],"split_indices":[4,5,0,0,0,0,0],"split_type":[0,0,0,0,0,0,0],"sum_hessian":[2.743333E2,1.859815E2,8.83518E1,1.6462633E2,2.135519E1,8.567587E1,2.6759279E0],"tree_param":{"num_deleted":"0","num_feature":"7","num_nodes":"7","size_leaf_vector":"0"}},{"base_weights":[5.222315E-1,1.411972E0,-1.4735751E0,1.5023574E0,5.55055E-1,7.1542606E-2,-1.5125682E0],"categories":[],"categories_nodes":[],"categories_segments":[],"categories_sizes":[],"default_left":[true,true,true,false,false,false,false],"id":3,"left_children":[1,3,5,-1,-1,-1,-1],"loss_changes":[4.7553247E2,1.34887085E1,5.0908203E0,0E0,0E0,0E0,0E0],"parents":[2147483647,0,0,1,1,2,2],"right_children":[2,4,6,-1,-1,-1,-1],"split_conditions":[6.154762E0,9.173846E-1,8.862611E-1,1.5023574E-1,5.5505503E-2,7.1542608E-3,-1.5125683E-1],"split_indices":[4,5,5,0,0,0,0],"split_type":[0,0,0,0,0,0,0],"sum_hessian":[2.6562076E2,1.8392058E2,8.170019E1,1.6569075E2,1.8229834E1,1.9905179E0,7.970966E1],"tree_param":{"num_deleted":"0","num_feature":"7","num_nodes":"7","size_leaf_vector":"0"}},{"base_weights":[4.906863E-1,1.3569199E0,-1.326705E0,1.3893961E0,-4.4604868E-2,6.123964E-1,-1.3813419E0],"categories":[],"categories_nodes":[],"categories_segments":[],"categories_sizes":[],"default_left":[true,true,true,false,false,false,false],"id":4,"left_children":[1,3,5,-1,-1,-1,-1],"loss_changes":[4.0489502E2,7.9770203E0,9.655838E0,0E0,0E0,0E0,0E0],"parents":[2147483647,0,0,1,1,2,2],"right_children":[2,4,6,-1,-1,-1,-1],"split_conditions":[5.9545455E0,9.3522894E-1,8.787997E-1,1.389396E-1,-4.460487E-3,6.123964E-2,-1.381342E-1],"split_indices":[4,5,5,0,0,0,0],"split_type":[0,0,0,0,0,0,0],"sum_hessian":[2.5504936E2,1.7289487E2,8.2154495E1,1.6898772E2,3.9071453E0,1.9716257E0,8.018287E1],"tree_param":{"num_deleted":"0","num_feature":"7","num_nodes":"7","size_leaf_vector":"0"}},{"base_weights":[4.6370393E-1,1.2542086E0,-1.318926E0,1.3615413E0,4.988055E-1,6.2536937E-1,-1.3442153E0],"categories":[],"categories_nodes":[],"categories_segments":[],"categories_sizes":[],"default_left":[true,true,true,false,false,false,false],"id":5,"left_children":[1,3,5,-1,-1,-1,-1],"loss_changes":[3.4634192E2,1.3101898E1,4.5594635E0,0E0,0E0,0E0,0E0],"parents":[2147483647,0,0,1,1,2,2],"right_children":[2,4,6,-1,-1,-1,-1],"split_conditions":[6.154762E0,9.129548E-1,9.35E1,1.3615413E-1,4.988055E-2,6.253694E-2,-1.3442153E-1],"split_indices":[4,5,2,0,0,0,0],"split_type":[0,0,0,0,0,0,0],"sum_hessian":[2.4360211E2,1.6896933E2,7.4632774E1,1.4724532E2,2.1724014E1,6.536021E-1,7.397917E1],"tree_param":{"num_deleted":"0","num_feature":"7","num_nodes":"7","size_leaf_vector":"0"}},{"base_weights":[4.4090793E-1,1.2380275E0,-1.1631619E0,1.3303298E0,5.6605715E-1,-1.2596931E0,7.195494E-1],"categories":[],"categories_nodes":[],"categories_segments":[],"categories_sizes":[],"default_left":[true,true,true,false,false,false,false],"id":6,"left_children":[1,3,5,-1,-1,-1,-1],"loss_changes":[2.9863684E2,8.907684E0,1.5023293E1,0E0,0E0,0E0,0E0],"parents":[2147483647,0,0,1,1,2,2],"right_children":[2,4,6,-1,-1,-1,-1],"split_conditions":[5.8397436E0,9.129548E-1,9.85E1,1.3303298E-1,5.6605715E-2,-1.2596932E-1,7.195494E-2],"split_indices":[4,5,0,0,0,0,0],"split_type":[0,0,0,0,0,0,0],"sum_hessian":[2.3143283E2,1.5475684E2,7.6675995E1,1.3520522E2,1.955162E1,7.3251144E1,3.4248526E0],"tree_param":{"num_deleted":"0","num_feature":"7","num_nodes":"7","size_leaf_vector":"0"}},{"base_weights":[4.2100403E-1,1.1381363E0,-1.2045742E0,1.2506661E0,4.1738072E-1,-2.0524281E-1,-1.2768782E0],"categories":[],"categories_nodes":[],"categories_segments":[],"categories_sizes":[],"default_left":[true,true,true,false,false,false,false],"id":7,"left_children":[1,3,5,-1,-1,-1,-1],"loss_changes":[2.580064E2,1.1909225E1,4.642288E0,0E0,0E0,0E0,0E0],"parents":[2147483647,0,0,1,1,2,2],"right_children":[2,4,6,-1,-1,-1,-1],"split_conditions":[6.154762E0,9.129548E-1,8.967267E-1,1.2506662E-1,4.1738074E-2,-2.0524282E-2,-1.2768783E-1],"split_indices":[4,5,5,0,0,0,0],"split_type":[0,0,0,0,0,0,0],"sum_hessian":[2.1914534E2,1.5227034E2,6.687499E1,1.3107127E2,2.1199072E1,4.771103E0,6.2103893E1],"tree_param":{"num_deleted":"0","num_feature":"7","num_nodes":"7","size_leaf_vector":"0"}},{"base_weights":[4.0271115E-1,1.1368461E0,-1.0666424E0,1.236266E0,4.8530963E-1,-1.1637514E0,6.7967916E-1],"categories":[],"categories_nodes":[],"categories_segments":[],"categories_sizes":[],"default_left":[true,true,true,false,false,false,false],"id":8,"left_children":[1,3,5,-1,-1,-1,-1],"loss_changes":[2.2539716E2,8.408386E0,1.2620735E1,0E0,0E0,0E0,0E0],"parents":[2147483647,0,0,1,1,2,2],"right_children":[2,4,6,-1,-1,-1,-1],"split_conditions":[5.8397436E0,9.129548E-1,9.85E1,1.23626605E-1,4.8530962E-2,-1.1637514E-1,6.7967914E-2],"split_indices":[4,5,0,0,0,0,0],"split_type":[0,0,0,0,0,0,0],"sum_hessian":[2.0682768E2,1.3806993E2,6.875776E1,1.19012054E2,1.9057877E1,6.545174E1,3.3060224E0],"tree_param":{"num_deleted":"0","num_feature":"7","num_nodes":"7","size_leaf_vector":"0"}},{"base_weights":[3.867474E-1,1.0930436E0,-1.0181344E0,1.1976824E0,4.4551608E-1,-1.1145484E0,6.303936E-1],"categories":[],"categories_nodes":[],"categories_segments":[],"categories_sizes":[],"default_left":[true,true,true,false,false,false,false],"id":9,"left_children":[1,3,5,-1,-1,-1,-1],"loss_changes":[1.9542358E2,8.328583E0,1.1197731E1,0E0,0E0,0E0,0E0],"parents":[2147483647,0,0,1,1,2,2],"right_children":[2,4,6,-1,-1,-1,-1],"split_conditions":[5.8397436E0,9.129548E-1,9.85E1,1.1976824E-1,4.4551607E-2,-1.11454844E-1,6.303936E-2],"split_indices":[4,5,0,0,0,0,0],"split_type":[0,0,0,0,0,0,0],"sum_hessian":[1.948259E2,1.2979446E2,6.503144E1,1.1100646E2,1.8787992E1,6.1744247E1,3.2871974E0],"tree_param":{"num_deleted":"0","num_feature":"7","num_nodes":"7","size_leaf_vector":"0"}},{"base_weights":[3.7210038E-1,1.0071741E0,-1.0801823E0,1.1170436E0,2.1016327E-1,-4.39237E-2,-1.1650577E0],"categories":[],"categories_nodes":[],"categories_segments":[],"categories_sizes":[],"default_left":[true,true,true,false,false,false,false],"id":10,"left_children":[1,3,5,-1,-1,-1,-1],"loss_changes":[1.7099588E2,1.1034195E1,4.9209137E0,0E0,0E0,0E0,0E0],"parents":[2147483647,0,0,1,1,2,2],"right_children":[2,4,6,-1,-1,-1,-1],"split_conditions":[6.154762E0,5.3166666E0,8.967267E-1,1.11704364E-1,2.1016328E-2,-4.39237E-3,-1.16505764E-1],"split_indices":[4,4,5,0,0,0,0],"split_type":[0,0,0,0,0,0,0],"sum_hessian":[1.8322067E2,1.2768941E2,5.553126E1,1.1186681E2,1.5822598E1,4.3188777E0,5.1212383E1],"tree_param":{"num_deleted":"0","num_feature":"7","num_nodes":"7","size_leaf_vector":"0"}},{"base_weights":[3.5731536E-1,9.6603215E-1,-1.0445217E0,1.1043789E0,2.4292035E-1,-4.0422108E-2,-1.1327143E0],"categories":[],"categories_nodes":[],"categories_segments":[],"categories_sizes":[],"default_left":[true,true,true,false,false,false,false],"id":11,"left_children":[1,3,5,-1,-1,-1,-1],"loss_changes":[1.4884128E2,1.1867752E1,4.6415405E0,0E0,0E0,0E0,0E0],"parents":[2147483647,0,0,1,1,2,2],"right_children":[2,4,6,-1,-1,-1,-1],"split_conditions":[6.154762E0,9.129548E-1,8.967267E-1,1.1043789E-1,2.4292035E-2,-4.042211E-3,-1.1327143E-1],"split_indices":[4,5,5,0,0,0,0],"split_type":[0,0,0,0,0,0,0],"sum_hessian":[1.7224326E2,1.2031152E2,5.193174E1,1.0054739E2,1.9764128E1,4.3107605E0,4.762098E1],"tree_param":{"num_deleted":"0","num_feature":"7","num_nodes":"7","size_leaf_vector":"0"}},{"base_weights":[3.438389E-1,1.0012784E0,-8.811612E-1,1.0520205E0,-4.1788915E-1,6.21519E-1,-1.008287E0],"categories":[],"categories_nodes":[],"categories_segments":[],"categories_sizes":[],"default_left":[true,true,true,false,false,false,false],"id":12,"left_children":[1,3,5,-1,-1,-1,-1],"loss_changes":[1.318751E2,8.095428E0,1.1579792E1,0E0,0E0,0E0,0E0],"parents":[2147483647,0,0,1,1,2,2],"right_children":[2,4,6,-1,-1,-1,-1],"split_conditions":[5.738636E0,9.3522894E-1,8.845423E-1,1.0520206E-1,-4.1788917E-2,6.2151905E-2,-1.008287E-1],"split_indices":[4,5,5,0,0,0,0],"split_type":[0,0,0,0,0,0,0],"sum_hessian":[1.6165057E2,1.0531318E2,5.63374E1,1.01927475E2,3.3857045E0,4.091002E0,5.2246395E1],"tree_param":{"num_deleted":"0","num_feature":"7","num_nodes":"7","size_leaf_vector":"0"}},{"base_weights":[3.308818E-1,9.6048546E-1,-8.5281396E-1,1.0832043E0,3.216674E-1,9.888944E-2,-1.0419416E0],"categories":[],"categories_nodes":[],"categories_segments":[],"categories_sizes":[],"default_left":[true,true,true,false,false,false,false],"id":13,"left_children":[1,3,5,-1,-1,-1,-1],"loss_changes":[1.1472297E2,7.5099335E0,9.750187E0,0E0,0E0,0E0,0E0],"parents":[2147483647,0,0,1,1,2,2],"right_children":[2,4,6,-1,-1,-1,-1],"split_conditions":[5.788889E0,9.129548E-1,8.9908934E-1,1.0832043E-1,3.216674E-2,9.888944E-3,-1.04194164E-1],"split_indices":[4,5,5,0,0,0,0],"split_type":[0,0,0,0,0,0,0],"sum_hessian":[1.518379E2,9.924069E1,5.259721E1,8.2664894E1,1.6575796E1,8.798698E0,4.379851E1],"tree_param":{"num_deleted":"0","num_feature":"7","num_nodes":"7","size_leaf_vector":"0"}},{"base_weights":[3.1864786E-1,8.6538345E-1,-9.558159E-1,1.0235461E0,1.6973113E-1,9.4794047E-1,-9.986408E-1],"categories":[],"categories_nodes":[],"categories_segments":[],"categories_sizes":[],"default_left":[true,true,true,false,false,false,false],"id":14,"left_children":[1,3,5,-1,-1,-1,-1],"loss_changes":[1.0088531E2,1.0940407E1,4.4999847E0,0E0,0E0,0E0,0E0],"parents":[2147483647,0,0,1,1,2,2],"right_children":[2,4,6,-1,-1,-1,-1],"split_conditions":[6.154762E0,9.129548E-1,9.35E1,1.0235461E-1,1.6973114E-2,9.479405E-2,-9.986408E-2],"split_indices":[4,5,2,0,0,0,0],"split_type":[0,0,0,0,0,0,0],"sum_hessian":[1.4259775E2,1.00013626E2,4.258413E1,8.1102844E1,1.891078E1,4.718759E-1,4.211225E1],"tree_param":{"num_deleted":"0","num_feature":"7","num_nodes":"7","size_leaf_vector":"0"}},{"base_weights":[3.074517E-1,9.0848327E-1,-7.8193104E-1,9.6715266E-1,-4.2430896E-1,1.1731102E0,-8.876771E-1],"categories":[],"categories_nodes":[],"categories_segments":[],"categories_sizes":[],"default_left":[true,true,true,false,false,false,false],"id":15,"left_children":[1,3,5,-1,-1,-1,-1],"loss_changes":[8.898403E1,7.240364E0,1.1062538E1,0E0,0E0,0E0,0E0],"parents":[2147483647,0,0,1,1,2,2],"right_children":[2,4,6,-1,-1,-1,-1],"split_conditions":[5.738636E0,9.3522894E-1,1.265E2,9.6715264E-2,-4.2430896E-2,1.1731102E-1,-8.876771E-2],"split_indices":[4,5,2,0,0,0,0],"split_type":[0,0,0,0,0,0,0],"sum_hessian":[1.338197E2,8.634675E1,4.7472958E1,8.296881E1,3.377938E0,1.9180591E0,4.5554897E1],"tree_param":{"num_deleted":"0","num_feature":"7","num_nodes":"7","size_leaf_vector":"0"}},{"base_weights":[2.9601392E-1,9.398142E-1,-6.496485E-1,1.041632E0,4.2762694E-1,7.960961E-1,-8.637901E-1],"categories":[],"categories_nodes":[],"categories_segments":[],"categories_sizes":[],"default_left":[true,true,true,false,false,false,false],"id":16,"left_children":[1,3,5,-1,-1,-1,-1],"loss_changes":[7.786406E1,3.5129166E0,1.6782701E1,0E0,0E0,0E0,0E0],"parents":[2147483647,0,0,1,1,2,2],"right_children":[2,4,6,-1,-1,-1,-1],"split_conditions":[5.3166666E0,9.129548E-1,8.845423E-1,1.0416321E-1,4.2762693E-2,7.960961E-2,-8.6379014E-2],"split_indices":[4,5,5,0,0,0,0],"split_type":[0,0,0,0,0,0,0],"sum_hessian":[1.2589103E2,7.4903465E1,5.0987568E1,6.1620262E1,1.3283202E1,6.227297E0,4.476027E1],"tree_param":{"num_deleted":"0","num_feature":"7","num_nodes":"7","size_leaf_vector":"0"}},{"base_weights":[2.8547144E-1,7.769016E-1,-8.733765E-1,1.079731E0,3.3549693E-1,1.4296995E-1,-9.9647266E-1],"categories":[],"categories_nodes":[],"categories_segments":[],"categories_sizes":[],"default_left":[true,true,true,false,false,false,false],"id":17,"left_children":[1,3,5,-1,-1,-1,-1],"loss_changes":[6.87574E1,1.0929413E1,4.6550007E0,0E0,0E0,0E0,0E0],"parents":[2147483647,0,0,1,1,2,2],"right_children":[2,4,6,-1,-1,-1,-1],"split_conditions":[6.154762E0,8.8463885E-1,8.967267E-1,1.079731E-1,3.3549692E-2,1.42969955E-2,-9.964727E-2],"split_indices":[4,5,5,0,0,0,0],"split_type":[0,0,0,0,0,0,0],"sum_hessian":[1.18542984E2,8.347395E1,3.5069027E1,4.8650642E1,3.482331E1,3.7711322E0,3.1297895E1],"tree_param":{"num_deleted":"0","num_feature":"7","num_nodes":"7","size_leaf_vector":"0"}},{"base_weights":[2.74333E-1,8.897553E-1,-6.013839E-1,1.0066235E0,3.7046158E-1,3.466751E-1,-9.049036E-1],"categories":[],"categories_nodes":[],"categories_segments":[],"categories_sizes":[],"default_left":[true,true,true,false,false,false,false],"id":18,"left_children":[1,3,5,-1,-1,-1,-1],"loss_changes":[6.1198586E1,3.663414E0,1.3853451E1,0E0,0E0,0E0,0E0],"parents":[2147483647,0,0,1,1,2,2],"right_children":[2,4,6,-1,-1,-1,-1],"split_conditions":[5.3166666E0,9.129548E-1,8.9908934E-1,1.0066235E-1,3.704616E-2,3.466751E-2,-9.049036E-2],"split_indices":[4,5,5,0,0,0,0],"split_type":[0,0,0,0,0,0,0],"sum_hessian":[1.1156165E2,6.550856E1,4.6053093E1,5.2708054E1,1.2800507E1,1.1133831E1,3.4919262E1],"tree_param":{"num_deleted":"0","num_feature":"7","num_nodes":"7","size_leaf_vector":"0"}},{"base_weights":[2.635812E-1,8.6367726E-1,-5.666893E-1,1.0623717E0,5.075496E-1,3.1602794E-1,-8.631324E-1],"categories":[],"categories_nodes":[],"categories_segments":[],"categories_sizes":[],"default_left":[true,true,true,false,false,false,false],"id":19,"left_children":[1,3,5,-1,-1,-1,-1],"loss_changes":[5.3433258E1,3.8533707E0,1.2096491E1,0E0,0E0,0E0,0E0],"parents":[2147483647,0,0,1,1,2,2],"right_children":[2,4,6,-1,-1,-1,-1],"split_conditions":[5.3166666E0,8.855932E-1,8.9908934E-1,1.0623717E-1,5.075496E-2,3.1602796E-2,-8.631324E-2],"split_indices":[4,5,5,0,0,0,0],"split_type":[0,0,0,0,0,0,0],"sum_hessian":[1.05261246E2,6.1076584E1,4.4184666E1,3.7930748E1,2.3145836E1,1.1091497E1,3.3093166E1],"tree_param":{"num_deleted":"0","num_feature":"7","num_nodes":"7","size_leaf_vector":"0"}},{"base_weights":[2.5291607E-1,6.59351E-1,-8.984191E-1,1.0662903E0,1.943629E-1,1.0222579E0,-9.6899164E-1],"categories":[],"categories_nodes":[],"categories_segments":[],"categories_sizes":[],"default_left":[true,true,true,false,false,false,false],"id":20,"left_children":[1,3,5,-1,-1,-1,-1],"loss_changes":[4.76468E1,1.396487E1,4.604126E0,0E0,0E0,0E0,0E0],"parents":[2147483647,0,0,1,1,2,2],"right_children":[2,4,6,-1,-1,-1,-1],"split_conditions":[6.563492E0,8.8463885E-1,9.35E1,1.0662903E-1,1.943629E-2,1.02225795E-1,-9.689917E-2],"split_indices":[4,5,2,0,0,0,0],"split_type":[0,0,0,0,0,0,0],"sum_hessian":[9.955594E1,7.389681E1,2.565913E1,3.871863E1,3.517818E1,4.3146032E-1,2.522767E1],"tree_param":{"num_deleted":"0","num_feature":"7","num_nodes":"7","size_leaf_vector":"0"}},{"base_weights":[2.4281745E-1,8.154909E-1,-5.212996E-1,1.0403243E0,4.6193725E-1,-6.9353545E-1,8.3723205E-1],"categories":[],"categories_nodes":[],"categories_segments":[],"categories_sizes":[],"default_left":[true,true,true,false,false,false,false],"id":21,"left_children":[1,3,5,-1,-1,-1,-1],"loss_changes":[4.2063614E1,3.873989E0,1.0261564E1,0E0,0E0,0E0,0E0],"parents":[2147483647,0,0,1,1,2,2],"right_children":[2,4,6,-1,-1,-1,-1],"split_conditions":[5.3166666E0,8.855932E-1,9.8E1,1.04032435E-1,4.6193726E-2,-6.935354E-2,8.372321E-2],"split_indices":[4,5,0,0,0,0,0],"split_type":[0,0,0,0,0,0,0],"sum_hessian":[9.415423E1,5.3780663E1,4.0373566E1,3.1687395E1,2.2093266E1,3.6265312E1,4.1082535E0],"tree_param":{"num_deleted":"0","num_feature":"7","num_nodes":"7","size_leaf_vector":"0"}},{"base_weights":[2.3294201E-1,5.8979815E-1,-9.1380805E-1,1.0533198E0,1.4016005E-1,2.8022167E-1,-9.997486E-1],"categories":[],"categories_nodes":[],"categories_segments":[],"categories_sizes":[],"default_left":[true,true,true,false,false,false,false],"id":22,"left_children":[1,3,5,-1,-1,-1,-1],"loss_changes":[3.757399E1,1.4364317E1,2.5244598E0,0E0,0E0,0E0,0E0],"parents":[2147483647,0,0,1,1,2,2],"right_children":[2,4,6,-1,-1,-1,-1],"split_conditions":[6.6833334E0,8.8463885E-1,2.06E2,1.0533198E-1,1.4016005E-2,2.8022168E-2,-9.997486E-2],"split_indices":[4,5,6,0,0,0,0],"split_type":[0,0,0,0,0,0,0],"sum_hessian":[8.950046E1,6.862941E1,2.0871046E1,3.3131897E1,3.5497513E1,1.2495507E0,1.9621496E1],"tree_param":{"num_deleted":"0","num_feature":"7","num_nodes":"7","size_leaf_vector":"0"}},{"base_weights":[2.2203596E-1,6.656854E-1,-6.539092E-1,7.996824E-1,-7.0593303E-1,5.10878E-1,-8.9437866E-1],"categories":[],"categories_nodes":[],"categories_segments":[],"categories_sizes":[],"default_left":[true,true,true,false,false,false,false],"id":23,"left_children":[1,3,5,-1,-1,-1,-1],"loss_changes":[3.3849335E1,1.1145632E1,8.695102E0,0E0,0E0,0E0,0E0],"parents":[2147483647,0,0,1,1,2,2],"right_children":[2,4,6,-1,-1,-1,-1],"split_conditions":[5.35E1,9.3522894E-1,8.846041E-1,7.996824E-2,-7.0593305E-2,5.1087804E-2,-8.9437865E-2],"split_indices":[1,5,5,0,0,0,0],"split_type":[0,0,0,0,0,0,0],"sum_hessian":[8.4982895E1,5.657087E1,2.8412024E1,5.1916035E1,4.6548347E0,4.669478E0,2.3742546E1],"tree_param":{"num_deleted":"0","num_feature":"7","num_nodes":"7","size_leaf_vector":"0"}},{"base_weights":[2.1074346E-1,7.8507686E-1,-4.2235848E-1,1.0121175E0,4.5864755E-1,1.7503206E-1,-9.227742E-1],"categories":[],"categories_nodes":[],"categories_segments":[],"categories_sizes":[],"default_left":[true,true,true,false,false,false,false],"id":24,"left_children":[1,3,5,-1,-1,-1,-1],"loss_changes":[3.0026789E1,2.7353134E0,1.1968718E1,0E0,0E0,0E0,0E0],"parents":[2147483647,0,0,1,1,2,2],"right_children":[2,4,6,-1,-1,-1,-1],"split_conditions":[5.1180553E0,8.855932E-1,9.179745E-1,1.0121175E-1,4.5864757E-2,1.7503208E-2,-9.227742E-2],"split_indices":[4,5,5,0,0,0,0],"split_type":[0,0,0,0,0,0,0],"sum_hessian":[8.066738E1,4.217095E1,3.8496426E1,2.3632984E1,1.8537968E1,1.7844315E1,2.0652111E1],"tree_param":{"num_deleted":"0","num_feature":"7","num_nodes":"7","size_leaf_vector":"0"}},{"base_weights":[2.0070569E-1,4.839542E-1,-1.0195704E0,8.255431E-1,-1.9460416E-1],"categories":[],"categories_nodes":[],"categories_segments":[],"categories_sizes":[],"default_left":[true,true,false,false,false],"id":25,"left_children":[1,3,-1,-1,-1],"loss_changes":[2.7407757E1,1.4966443E1,0E0,0E0,0E0],"parents":[2147483647,0,0,1,1],"right_children":[2,4,-1,-1,-1],"split_conditions":[7.05E0,9.1356564E-1,-1.0195704E-1,8.255431E-2,-1.9460415E-2],"split_indices":[4,5,0,0,0],"split_type":[0,0,0,0,0],"sum_hessian":[7.68678E1,6.287643E1,1.3991369E1,4.167863E1,2.1197798E1],"tree_param":{"num_deleted":"0","num_feature":"7","num_nodes":"5","size_leaf_vector":"0"}},{"base_weights":[1.896511E-1,6.0003567E-1,-6.1307913E-1,7.3112977E-1,-6.0285765E-1,4.4002196E-1,-8.446805E-1],"categories":[],"categories_nodes":[],"categories_segments":[],"categories_sizes":[],"default_left":[true,true,true,false,false,false,false],"id":26,"left_children":[1,3,5,-1,-1,-1,-1],"loss_changes":[2.4812767E1,8.263395E0,6.6148043E0,0E0,0E0,0E0,0E0],"parents":[2147483647,0,0,1,1,2,2],"right_children":[2,4,6,-1,-1,-1,-1],"split_conditions":[5.35E1,9.3522894E-1,5.7636366E0,7.311298E-2,-6.0285766E-2,4.4002198E-2,-8.446805E-2],"split_indices":[1,5,4,0,0,0,0],"split_type":[0,0,0,0,0,0,0],"sum_hessian":[7.320405E1,4.860694E1,2.4597109E1,4.4183872E1,4.4230695E0,4.2720423E0,2.0325066E1],"tree_param":{"num_deleted":"0","num_feature":"7","num_nodes":"7","size_leaf_vector":"0"}},{"base_weights":[1.7932393E-1,4.3965796E-1,-9.9724865E-1,1.0108193E0,3.8190693E-2],"categories":[],"categories_nodes":[],"categories_segments":[],"categories_sizes":[],"default_left":[true,true,false,false,false],"id":27,"left_children":[1,3,-1,-1,-1],"loss_changes":[2.2086887E1,1.3390696E1,0E0,0E0,0E0],"parents":[2147483647,0,0,1,1],"right_children":[2,4,-1,-1,-1],"split_conditions":[7.05E0,8.8463885E-1,-9.972487E-2,1.0108193E-1,3.8190694E-3],"split_indices":[4,5,0,0,0],"split_type":[0,0,0,0,0],"sum_hessian":[6.967681E1,5.7565845E1,1.2110969E1,2.3134678E1,3.4431168E1],"tree_param":{"num_deleted":"0","num_feature":"7","num_nodes":"5","size_leaf_vector":"0"}},{"base_weights":[1.6928191E-1,5.525557E-1,-5.843208E-1,9.055713E-1,9.050191E-2,4.2322057E-1,-8.006901E-1],"categories":[],"categories_nodes":[],"categories_segments":[],"categories_sizes":[],"default_left":[true,true,true,false,false,false,false],"id":28,"left_children":[1,3,5,-1,-1,-1,-1],"loss_changes":[1.9877344E1,7.321864E0,5.420463E0,0E0,0E0,0E0,0E0],"parents":[2147483647,0,0,1,1,2,2],"right_children":[2,4,6,-1,-1,-1,-1],"split_conditions":[5.35E1,9.0121305E-1,8.846041E-1,9.055713E-2,9.050191E-3,4.232206E-2,-8.006901E-2],"split_indices":[1,5,5,0,0,0,0],"split_type":[0,0,0,0,0,0,0],"sum_hessian":[6.670092E1,4.4390965E1,2.230996E1,2.4620596E1,1.9770367E1,3.7750618E0,1.8534897E1],"tree_param":{"num_deleted":"0","num_feature":"7","num_nodes":"7","size_leaf_vector":"0"}},{"base_weights":[1.6082463E-1,4.0107557E-1,-9.798555E-1,9.8871577E-1,3.792182E-2],"categories":[],"categories_nodes":[],"categories_segments":[],"categories_sizes":[],"default_left":[true,true,false,false,false],"id":29,"left_children":[1,3,-1,-1,-1],"loss_changes":[1.8159187E1,1.154164E1,0E0,0E0,0E0],"parents":[2147483647,0,0,1,1],"right_children":[2,4,-1,-1,-1],"split_conditions":[7.05E0,8.8463885E-1,-9.798555E-2,9.887158E-2,3.792182E-3],"split_indices":[4,5,0,0,0],"split_type":[0,0,0,0,0],"sum_hessian":[6.3828415E1,5.325929E1,1.0569124E1,1.9684338E1,3.357495E1],"tree_param":{"num_deleted":"0","num_feature":"7","num_nodes":"5","size_leaf_vector":"0"}},{"base_weights":[1.5134278E-1,6.6049635E-1,-3.6082947E-1,9.6518034E-1,3.4868252E-1,-6.3638586E-1,6.326298E-1],"categories":[],"categories_nodes":[],"categories_segments":[],"categories_sizes":[],"default_left":[true,true,true,false,false,false,false],"id":30,"left_children":[1,3,5,-1,-1,-1,-1],"loss_changes":[1.64814E1,2.664588E0,9.080212E0,0E0,0E0,0E0,0E0],"parents":[2147483647,0,0,1,1,2,2],"right_children":[2,4,6,-1,-1,-1,-1],"split_conditions":[5.1180553E0,8.855932E-1,8E1,9.651803E-2,3.486825E-2,-6.363859E-2,6.3262984E-2],"split_indices":[4,5,0,0,0,0,0],"split_type":[0,0,0,0,0,0,0],"sum_hessian":[6.1287853E1,3.058927E1,3.0698582E1,1.4411717E1,1.6177553E1,2.4314014E1,6.384568E0],"tree_param":{"num_deleted":"0","num_feature":"7","num_nodes":"7","size_leaf_vector":"0"}},{"base_weights":[1.444205E-1,3.6535215E-1,-9.6181667E-1,9.719523E-1,3.4198046E-2],"categories":[],"categories_nodes":[],"categories_segments":[],"categories_sizes":[],"default_left":[true,true,false,false,false],"id":31,"left_children":[1,3,-1,-1,-1],"loss_changes":[1.5018437E1,1.0160601E1,0E0,0E0,0E0],"parents":[2147483647,0,0,1,1],"right_children":[2,4,-1,-1,-1],"split_conditions":[7.05E0,8.8463885E-1,-9.618167E-2,9.719523E-2,3.4198046E-3],"split_indices":[4,5,0,0,0],"split_type":[0,0,0,0,0],"sum_hessian":[5.901173E1,4.9746387E1,9.265342E0,1.6883871E1,3.286252E1],"tree_param":{"num_deleted":"0","num_feature":"7","num_nodes":"5","size_leaf_vector":"0"}},{"base_weights":[1.3548723E-1,3.5519525E-1,-9.2530274E-1,9.673191E-1,4.6342038E-2,2.963378E-1,-1.005225E0],"categories":[],"categories_nodes":[],"categories_segments":[],"categories_sizes":[],"default_left":[true,true,true,false,false,false,false],"id":32,"left_children":[1,3,5,-1,-1,-1,-1],"loss_changes":[1.380801E1,9.149853E0,1.2938519E0,0E0,0E0,0E0,0E0],"parents":[2147483647,0,0,1,1,2,2],"right_children":[2,4,6,-1,-1,-1,-1],"split_conditions":[6.35E1,8.8463885E-1,5.6153846E0,9.673191E-2,4.634204E-3,2.9633781E-2,-1.00522496E-1],"split_indices":[1,5,4,0,0,0,0],"split_type":[0,0,0,0,0,0,0],"sum_hessian":[5.683537E1,4.763458E1,9.200789E0,1.5259477E1,3.2375103E1,3.9869866E-1,8.802091E0],"tree_param":{"num_deleted":"0","num_feature":"7","num_nodes":"7","size_leaf_vector":"0"}},{"base_weights":[1.2723842E-1,4.581775E-1,-5.314308E-1,5.967653E-1,-5.474796E-1,5.3961743E-3,-9.05026E-1],"categories":[],"categories_nodes":[],"categories_segments":[],"categories_sizes":[],"default_left":[true,true,true,false,false,false,false],"id":33,"left_children":[1,3,5,-1,-1,-1,-1],"loss_changes":[1.241503E1,5.5813155E0,3.8427272E0,0E0,0E0,0E0,0E0],"parents":[2147483647,0,0,1,1,2,2],"right_children":[2,4,6,-1,-1,-1,-1],"split_conditions":[5.35E1,9.3522894E-1,9.1522455E-1,5.9676528E-2,-5.4747965E-2,5.3961744E-4,-9.0502605E-2],"split_indices":[1,5,5,0,0,0,0],"split_type":[0,0,0,0,0,0,0],"sum_hessian":[5.4838036E1,3.6702015E1,1.8136023E1,3.2614113E1,4.0879006E0,7.8466125E0,1.0289409E1],"tree_param":{"num_deleted":"0","num_feature":"7","num_nodes":"7","size_leaf_vector":"0"}},{"base_weights":[1.17352195E-1,3.15954E-1,-9.395604E-1,9.390167E-1,2.5143504E-2],"categories":[],"categories_nodes":[],"categories_segments":[],"categories_sizes":[],"default_left":[true,true,false,false,false],"id":34,"left_children":[1,3,-1,-1,-1],"loss_changes":[1.1599808E1,8.325495E0,0E0,0E0,0E0],"parents":[2147483647,0,0,1,1],"right_children":[2,4,-1,-1,-1],"split_conditions":[7.05E0,8.8463885E-1,-9.3956046E-2,9.390167E-2,2.5143505E-3],"split_indices":[4,5,0,0,0],"split_type":[0,0,0,0,0],"sum_hessian":[5.2847992E1,4.507847E1,7.769523E0,1.3635465E1,3.1443003E1],"tree_param":{"num_deleted":"0","num_feature":"7","num_nodes":"5","size_leaf_vector":"0"}},{"base_weights":[1.0962661E-1,3.0183187E-1,-9.0407425E-1,9.3492216E-1,3.0073002E-2,2.713442E-1,-9.8810244E-1],"categories":[],"categories_nodes":[],"categories_segments":[],"categories_sizes":[],"default_left":[true,true,true,false,false,false,false],"id":35,"left_children":[1,3,5,-1,-1,-1,-1],"loss_changes":[1.04245615E1,7.63631E0,1.11306E0,0E0,0E0,0E0,0E0],"parents":[2147483647,0,0,1,1,2,2],"right_children":[2,4,6,-1,-1,-1,-1],"split_conditions":[6.35E1,8.8463885E-1,5.6153846E0,9.349222E-2,3.0073002E-3,2.7134422E-2,-9.881025E-2],"split_indices":[1,5,4,0,0,0,0],"split_type":[0,0,0,0,0,0,0],"sum_hessian":[5.1103024E1,4.3548206E1,7.554818E0,1.2346199E1,3.1202007E1,3.5531595E-1,7.199502E0],"tree_param":{"num_deleted":"0","num_feature":"7","num_nodes":"7","size_leaf_vector":"0"}},{"base_weights":[1.0253446E-1,2.830759E-1,-9.2126137E-1,9.096302E-1,2.8832246E-2],"categories":[],"categories_nodes":[],"categories_segments":[],"categories_sizes":[],"default_left":[true,true,false,false,false],"id":36,"left_children":[1,3,-1,-1,-1],"loss_changes":[9.59979E0,6.9376483E0,0E0,0E0,0E0],"parents":[2147483647,0,0,1,1],"right_children":[2,4,-1,-1,-1],"split_conditions":[7.05E0,8.8463885E-1,-9.212614E-2,9.096302E-2,2.8832245E-3],"split_indices":[4,5,0,0,0],"split_type":[0,0,0,0,0],"sum_hessian":[4.952546E1,4.271617E1,6.8092866E0,1.1586005E1,3.1130167E1],"tree_param":{"num_deleted":"0","num_feature":"7","num_nodes":"5","size_leaf_vector":"0"}},{"base_weights":[9.543477E-2,5.433023E-1,-2.9443145E-1,-2.1984719E-1,7.3300457E-1,-9.650946E-1,1.3478737E-1],"categories":[],"categories_nodes":[],"categories_segments":[],"categories_sizes":[],"default_left":[true,false,false,false,false,false,false],"id":37,"left_children":[1,3,5,-1,-1,-1,-1],"loss_changes":[8.72382E0,3.5164542E0,7.864753E0,0E0,0E0,0E0,0E0],"parents":[2147483647,0,0,1,1,2,2],"right_children":[2,4,6,-1,-1,-1,-1],"split_conditions":[5.0839157E0,2.605E2,1.2683605E0,-2.1984719E-2,7.330046E-2,-9.6509464E-2,1.3478736E-2],"split_indices":[4,6,3,0,0,0,0],"split_type":[0,0,0,0,0,0,0],"sum_hessian":[4.804605E1,2.217661E1,2.5869438E1,4.3834815E0,1.779313E1,9.608098E0,1.6261341E1],"tree_param":{"num_deleted":"0","num_feature":"7","num_nodes":"7","size_leaf_vector":"0"}},{"base_weights":[8.786821E-2,2.5872403E-1,-9.069027E-1,8.9234257E-1,1.959626E-2],"categories":[],"categories_nodes":[],"categories_segments":[],"categories_sizes":[],"default_left":[true,true,false,false,false],"id":38,"left_children":[1,3,-1,-1,-1],"loss_changes":[8.376669E0,6.29483E0,0E0,0E0,0E0],"parents":[2147483647,0,0,1,1],"right_children":[2,4,-1,-1,-1],"split_conditions":[7.05E0,8.8463885E-1,-9.069027E-2,8.9234255E-2,1.959626E-3],"split_indices":[4,5,0,0,0],"split_type":[0,0,0,0,0],"sum_hessian":[4.69049E1,4.066111E1,6.2437897E0,1.0392466E1,3.0268644E1],"tree_param":{"num_deleted":"0","num_feature":"7","num_nodes":"5","size_leaf_vector":"0"}},{"base_weights":[8.160924E-2,2.4986444E-1,-8.864456E-1,8.932315E-1,2.5331125E-2,2.3348543E-1,-9.6881413E-1],"categories":[],"categories_nodes":[],"categories_segments":[],"categories_sizes":[],"default_left":[true,true,true,false,false,false,false],"id":39,"left_children":[1,3,5,-1,-1,-1,-1],"loss_changes":[7.810344E0,5.823971E0,8.828912E-1,0E0,0E0,0E0,0E0],"parents":[2147483647,0,0,1,1,2,2],"right_children":[2,4,6,-1,-1,-1,-1],"split_conditions":[6.35E1,8.8463885E-1,5.6153846E0,8.9323156E-2,2.5331124E-3,2.3348544E-2,-9.688141E-2],"split_indices":[1,5,4,0,0,0,0],"split_type":[0,0,0,0,0,0,0],"sum_hessian":[4.559161E1,3.9472828E1,6.1187835E0,9.441483E0,3.0031343E1,2.935028E-1,5.8252807E0],"tree_param":{"num_deleted":"0","num_feature":"7","num_nodes":"7","size_leaf_vector":"0"}},{"base_weights":[7.595589E-2,2.3106752E-1,-8.8830566E-1,8.106338E-2,1.3098488E0],"categories":[],"categories_nodes":[],"categories_segments":[],"categories_sizes":[],"default_left":[true,false,false,false,false],"id":40,"left_children":[1,3,-1,-1,-1],"loss_changes":[6.9955645E0,6.3508234E0,0E0,0E0,0E0],"parents":[2147483647,0,0,1,1],"right_children":[2,4,-1,-1,-1],"split_conditions":[7.05E0,1.4975586E0,-8.883057E-2,8.106339E-3,1.3098489E-1],"split_indices":[4,3,0,0,0],"split_type":[0,0,0,0,0],"sum_hessian":[4.4399403E1,3.8901978E1,5.497425E0,3.509691E1,3.8050692E0],"tree_param":{"num_deleted":"0","num_feature":"7","num_nodes":"5","size_leaf_vector":"0"}},{"base_weights":[7.0220366E-2,2.2118512E-1,-8.649795E-1,8.755792E-1,8.207182E-3,2.2796759E-1,-9.5287097E-1],"categories":[],"categories_nodes":[],"categories_segments":[],"categories_sizes":[],"default_left":[true,true,true,false,false,false,false],"id":41,"left_children":[1,3,5,-1,-1,-1,-1],"loss_changes":[6.507364E0,5.4722414E0,8.340831E-1,0E0,0E0,0E0,0E0],"parents":[2147483647,0,0,1,1,2,2],"right_children":[2,4,6,-1,-1,-1,-1],"split_conditions":[6.35E1,8.8463885E-1,5.6153846E0,8.755792E-2,8.2071824E-4,2.279676E-2,-9.52871E-2],"split_indices":[1,5,4,0,0,0,0],"split_type":[0,0,0,0,0,0,0],"sum_hessian":[4.373682E1,3.831526E1,5.4215574E0,8.644162E0,2.96711E1,2.8490978E-1,5.136647E0],"tree_param":{"num_deleted":"0","num_feature":"7","num_nodes":"7","size_leaf_vector":"0"}},{"base_weights":[6.5239966E-2,-2.3438387E-1,5.2496E-1,3.562997E-1,-9.83912E-1,6.206046E-1,-6.444734E-1],"categories":[],"categories_nodes":[],"categories_segments":[],"categories_sizes":[],"default_left":[true,true,true,false,false,false,false],"id":42,"left_children":[1,3,5,-1,-1,-1,-1],"loss_changes":[6.142063E0,1.2369259E1,2.3630323E0,0E0,0E0,0E0,0E0],"parents":[2147483647,0,0,1,1,2,2],"right_children":[2,4,6,-1,-1,-1,-1],"split_conditions":[8E1,9.1692233E-1,6.15E1,3.562997E-2,-9.83912E-2,6.2060457E-2,-6.4447336E-2],"split_indices":[0,5,1,0,0,0,0],"split_type":[0,0,0,0,0,0,0],"sum_hessian":[4.269745E1,2.614653E1,1.6550917E1,1.4916142E1,1.1230389E1,1.5733436E1,8.174806E-1],"tree_param":{"num_deleted":"0","num_feature":"7","num_nodes":"7","size_leaf_vector":"0"}},{"base_weights":[5.8966495E-2,1.9590652E-1,-8.64366E-1,4.4614136E-2,1.1888927E0],"categories":[],"categories_nodes":[],"categories_segments":[],"categories_sizes":[],"default_left":[true,false,false,false,false],"id":43,"left_children":[1,3,-1,-1,-1],"loss_changes":[5.539048E0,5.6254473E0,0E0,0E0,0E0],"parents":[2147483647,0,0,1,1],"right_children":[2,4,-1,-1,-1],"split_conditions":[7.05E0,1.4830439E0,-8.64366E-2,4.4614137E-3,1.1888927E-1],"split_indices":[4,3,0,0,0],"split_type":[0,0,0,0,0],"sum_hessian":[4.1468075E1,3.6798317E1,4.6697555E0,3.283975E1,3.9585683E0],"tree_param":{"num_deleted":"0","num_feature":"7","num_nodes":"5","size_leaf_vector":"0"}},{"base_weights":[5.4381628E-2,4.2498308E-1,-2.8581768E-1,-3.84999E-1,6.3055944E-1,-1.1901473E0,2.4716422E-2],"categories":[],"categories_nodes":[],"categories_segments":[],"categories_sizes":[],"default_left":[true,false,false,false,false,false,false],"id":44,"left_children":[1,3,5,-1,-1,-1,-1],"loss_changes":[5.409868E0,3.6525784E0,6.3388844E0,0E0,0E0,0E0,0E0],"parents":[2147483647,0,0,1,1,2,2],"right_children":[2,4,6,-1,-1,-1,-1],"split_conditions":[5.1180553E0,2.605E2,1.2181313E0,-3.8499903E-2,6.305595E-2,-1.1901473E-1,2.4716423E-3],"split_indices":[4,6,3,0,0,0,0],"split_type":[0,0,0,0,0,0,0],"sum_hessian":[4.0945343E1,1.9477743E1,2.1467602E1,3.7661455E0,1.57115965E1,4.7633405E0,1.6704262E1],"tree_param":{"num_deleted":"0","num_feature":"7","num_nodes":"7","size_leaf_vector":"0"}},{"base_weights":[4.812161E-2,7.21281E-1,-1.4210837E-1,8.58837E-1,-7.239344E-1,-5.580969E-1,4.784068E-1],"categories":[],"categories_nodes":[],"categories_segments":[],"categories_sizes":[],"default_left":[true,true,true,false,false,false,false],"id":45,"left_children":[1,3,5,-1,-1,-1,-1],"loss_changes":[5.375956E0,2.4582405E0,8.770519E0,0E0,0E0,0E0,0E0],"parents":[2147483647,0,0,1,1,2,2],"right_children":[2,4,6,-1,-1,-1,-1],"split_conditions":[8.8463885E-1,7.2E1,8E1,8.58837E-2,-7.239344E-2,-5.5809688E-2,4.784068E-2],"split_indices":[5,1,0,0,0,0,0],"split_type":[0,0,0,0,0,0,0],"sum_hessian":[4.0181152E1,8.2380085E0,3.1943142E1,7.8925323E0,3.4547606E-1,1.918336E1,1.2759784E1],"tree_param":{"num_deleted":"0","num_feature":"7","num_nodes":"7","size_leaf_vector":"0"}},{"base_weights":[4.5228872E-2,6.9459456E-1,-1.2958986E-1,8.3698887E-1,-7.061437E-1,-5.070397E-1,4.456557E-1],"categories":[],"categories_nodes":[],"categories_segments":[],"categories_sizes":[],"default_left":[true,true,true,false,false,false,false],"id":46,"left_children":[1,3,5,-1,-1,-1,-1],"loss_changes":[4.655329E0,2.3237977E0,7.288678E0,0E0,0E0,0E0,0E0],"parents":[2147483647,0,0,1,1,2,2],"right_children":[2,4,6,-1,-1,-1,-1],"split_conditions":[8.8463885E-1,7.2E1,8E1,8.369889E-2,-7.061437E-2,-5.0703973E-2,4.456557E-2],"split_indices":[5,1,0,0,0,0,0],"split_type":[0,0,0,0,0,0,0],"sum_hessian":[3.921552E1,7.6873946E0,3.1528124E1,7.3433595E0,3.4403518E-1,1.910854E1,1.2419582E1],"tree_param":{"num_deleted":"0","num_feature":"7","num_nodes":"7","size_leaf_vector":"0"}},{"base_weights":[4.244394E-2,1.6607395E-1,-8.4172505E-1,1.6025491E-2,1.1231048E0],"categories":[],"categories_nodes":[],"categories_segments":[],"categories_sizes":[],"default_left":[true,false,false,false,false],"id":47,"left_children":[1,3,-1,-1,-1],"loss_changes":[4.441892E0,5.060327E0,0E0,0E0,0E0],"parents":[2147483647,0,0,1,1],"right_children":[2,4,-1,-1,-1],"split_conditions":[7.05E0,1.4830439E0,-8.417251E-2,1.6025491E-3,1.12310484E-1],"split_indices":[4,3,0,0,0],"split_type":[0,0,0,0,0],"sum_hessian":[3.835697E1,3.4364136E1,3.9928374E0,3.0585518E1,3.778617E0],"tree_param":{"num_deleted":"0","num_feature":"7","num_nodes":"5","size_leaf_vector":"0"}},{"base_weights":[3.916963E-2,6.733334E-1,-1.242781E-1,8.1899375E-1,-6.849968E-1,-4.6345586E-1,4.02201E-1],"categories":[],"categories_nodes":[],"categories_segments":[],"categories_sizes":[],"default_left":[true,true,true,false,false,false,false],"id":48,"left_children":[1,3,5,-1,-1,-1,-1],"loss_changes":[4.120861E0,2.1710184E0,5.867038E0,0E0,0E0,0E0,0E0],"parents":[2147483647,0,0,1,1,2,2],"right_children":[2,4,6,-1,-1,-1,-1],"split_conditions":[8.8463885E-1,7.2E1,8E1,8.1899375E-2,-6.849968E-2,-4.6345588E-2,4.02201E-2],"split_indices":[5,1,0,0,0,0,0],"split_type":[0,0,0,0,0,0,0],"sum_hessian":[3.7949142E1,7.137329E0,3.0811813E1,6.8046875E0,3.3264136E-1,1.8812073E1,1.1999742E1],"tree_param":{"num_deleted":"0","num_feature":"7","num_nodes":"7","size_leaf_vector":"0"}},{"base_weights":[3.6749505E-2,1.5004298E-1,-8.241503E-1,1.3104835E-2,1.0946026E0],"categories":[],"categories_nodes":[],"categories_segments":[],"categories_sizes":[],"default_left":[true,false,false,false,false],"id":49,"left_children":[1,3,-1,-1,-1],"loss_changes":[3.8494577E0,4.4614778E0,0E0,0E0,0E0],"parents":[2147483647,0,0,1,1],"right_children":[2,4,-1,-1,-1],"split_conditions":[7.05E0,1.4975586E0,-8.241504E-2,1.3104834E-3,1.0946026E-1],"split_indices":[4,3,0,0,0],"split_type":[0,0,0,0,0],"sum_hessian":[3.719988E1,3.360342E1,3.5964599E0,3.0234087E1,3.369333E0],"tree_param":{"num_deleted":"0","num_feature":"7","num_nodes":"5","size_leaf_vector":"0"}},{"base_weights":[3.3955377E-2,3.3492655E-1,-2.8323057E-1,1.5519513E-1,1.0906168E0,-7.8497344E-1,4.65361E-1],"categories":[],"categories_nodes":[],"categories_segments":[],"categories_sizes":[],"default_left":[true,false,true,false,false,false,false],"id":50,"left_children":[1,3,5,-1,-1,-1,-1],"loss_changes":[3.7077382E0,2.5305014E0,7.489763E0,0E0,0E0,0E0,0E0],"parents":[2147483647,0,0,1,1,2,2],"right_children":[2,4,6,-1,-1,-1,-1],"split_conditions":[9.134419E-1,4.755E2,8E1,1.5519514E-2,1.0906168E-1,-7.849734E-2,4.65361E-2],"split_indices":[5,2,0,0,0,0,0],"split_type":[0,0,0,0,0,0,0],"sum_hessian":[3.68455E1,1.8877296E1,1.7968206E1,1.6223993E1,2.6533034E0,1.0728702E1,7.239504E0],"tree_param":{"num_deleted":"0","num_feature":"7","num_nodes":"7","size_leaf_vector":"0"}},{"base_weights":[3.3819526E-2,6.416756E-1,-1.1571418E-1,7.9403824E-1,-6.686194E-1,-4.0059277E-1,3.359771E-1],"categories":[],"categories_nodes":[],"categories_segments":[],"categories_sizes":[],"default_left":[true,true,true,false,false,false,false],"id":51,"left_children":[1,3,5,-1,-1,-1,-1],"loss_changes":[3.4531345E0,2.0266225E0,4.082591E0,0E0,0E0,0E0,0E0],"parents":[2147483647,0,0,1,1,2,2],"right_children":[2,4,6,-1,-1,-1,-1],"split_conditions":[8.8463885E-1,7.2E1,8E1,7.9403825E-2,-6.686194E-2,-4.005928E-2,3.359771E-2],"split_indices":[5,1,0,0,0,0,0],"split_type":[0,0,0,0,0,0,0],"sum_hessian":[3.6173496E1,6.4920535E0,2.9681442E1,6.168745E0,3.2330832E-1,1.8271107E1,1.1410335E1],"tree_param":{"num_deleted":"0","num_feature":"7","num_nodes":"7","size_leaf_vector":"0"}},{"base_weights":[3.1649727E-2,1.3853228E-1,-7.8710014E-1,1.0723993E0,2.5015797E-2,1.7799132E-1,-8.78892E-1],"categories":[],"categories_nodes":[],"categories_segments":[],"categories_sizes":[],"default_left":[true,true,true,false,false,false,false],"id":52,"left_children":[1,3,5,-1,-1,-1,-1],"loss_changes":[3.3080978E0,3.491159E0,5.436363E-1,0E0,0E0,0E0,0E0],"parents":[2147483647,0,0,1,1,2,2],"right_children":[2,4,6,-1,-1,-1,-1],"split_conditions":[6.35E1,2.35E2,5.6153846E0,1.07239924E-1,2.5015797E-3,1.7799132E-2,-8.78892E-2],"split_indices":[1,6,4,0,0,0,0],"split_type":[0,0,0,0,0,0,0],"sum_hessian":[3.555646E1,3.2185635E1,3.3708286E0,2.572809E0,2.9612825E1,2.1120134E-1,3.1596272E0],"tree_param":{"num_deleted":"0","num_feature":"7","num_nodes":"7","size_leaf_vector":"0"}},{"base_weights":[2.9850649E-2,1.3062723E-1,-7.9761785E-1,-5.4117064E-3,9.936936E-1],"categories":[],"categories_nodes":[],"categories_segments":[],"categories_sizes":[],"default_left":[true,false,false,false,false],"id":53,"left_children":[1,3,-1,-1,-1],"loss_changes":[3.1190035E0,3.8902168E0,0E0,0E0,0E0],"parents":[2147483647,0,0,1,1],"right_children":[2,4,-1,-1,-1],"split_conditions":[7.05E0,1.4830439E0,-7.976179E-2,-5.4117065E-4,9.936936E-2],"split_indices":[4,3,0,0,0],"split_type":[0,0,0,0,0],"sum_hessian":[3.515341E1,3.2087627E1,3.0657847E0,2.8576975E1,3.5106533E0],"tree_param":{"num_deleted":"0","num_feature":"7","num_nodes":"5","size_leaf_vector":"0"}},{"base_weights":[2.7471293E-2,1.0612383E0,-5.3841252E-2,1.2073838E0,-1.5185006E-1,2.933045E-1,-3.7250504E-1],"categories":[],"categories_nodes":[],"categories_segments":[],"categories_sizes":[],"default_left":[true,true,true,false,false,false,false],"id":54,"left_children":[1,3,5,-1,-1,-1,-1],"loss_changes":[3.072458E0,6.556504E-1,3.8934097E0,0E0,0E0,0E0,0E0],"parents":[2147483647,0,0,1,1,2,2],"right_children":[2,4,6,-1,-1,-1,-1],"split_conditions":[2.075E2,7.083333E0,5.1180553E0,1.2073838E-1,-1.5185006E-2,2.9330451E-2,-3.7250504E-2],"split_indices":[6,4,4,0,0,0,0],"split_type":[0,0,0,0,0,0,0],"sum_hessian":[3.48718E1,1.6640868E0,3.3207714E1,1.4893603E0,1.7472653E-1,1.5931666E1,1.7276047E1],"tree_param":{"num_deleted":"0","num_feature":"7","num_nodes":"7","size_leaf_vector":"0"}},{"base_weights":[2.8144242E-2,6.1576486E-1,-1.08668536E-1,8.2002413E-1,-4.3449044E-1,-3.5852525E-1,2.931274E-1],"categories":[],"categories_nodes":[],"categories_segments":[],"categories_sizes":[],"default_left":[true,true,true,false,false,false,false],"id":55,"left_children":[1,3,5,-1,-1,-1,-1],"loss_changes":[2.9079304E0,1.8201818E0,3.0681233E0,0E0,0E0,0E0,0E0],"parents":[2147483647,0,0,1,1,2,2],"right_children":[2,4,6,-1,-1,-1,-1],"split_conditions":[8.8463885E-1,6.25E1,8E1,8.2002416E-2,-4.3449044E-2,-3.5852525E-2,2.931274E-2],"split_indices":[5,1,0,0,0,0,0],"split_type":[0,0,0,0,0,0,0],"sum_hessian":[3.4338654E1,5.823882E0,2.8514772E1,5.059163E0,7.647188E-1,1.7648037E1,1.08667345E1],"tree_param":{"num_deleted":"0","num_feature":"7","num_nodes":"7","size_leaf_vector":"0"}},{"base_weights":[2.7121723E-2,1.0467814E0,-5.08096E-2,1.1929184E0,-1.4547698E-1,-3.7936333E-1,2.6542526E-1],"categories":[],"categories_nodes":[],"categories_segments":[],"categories_sizes":[],"default_left":[true,true,false,false,false,false,false],"id":56,"left_children":[1,3,5,-1,-1,-1,-1],"loss_changes":[2.8207479E0,6.124635E-1,3.561497E0,0E0,0E0,0E0,0E0],"parents":[2147483647,0,0,1,1,2,2],"right_children":[2,4,6,-1,-1,-1,-1],"split_conditions":[2.075E2,7.083333E0,2.815E2,1.1929184E-1,-1.4547698E-2,-3.7936334E-2,2.6542528E-2],"split_indices":[6,4,2,0,0,0,0],"split_type":[0,0,0,0,0,0,0],"sum_hessian":[3.382811E1,1.5191627E0,3.230895E1,1.3527949E0,1.6636777E-1,1.5747933E1,1.6561016E1],"tree_param":{"num_deleted":"0","num_feature":"7","num_nodes":"7","size_leaf_vector":"0"}},{"base_weights":[2.7394202E-2,2.9525343E-1,-2.4921225E-1,1.10085204E-1,1.0675095E0,-6.584306E-1,3.7481156E-1],"categories":[],"categories_nodes":[],"categories_segments":[],"categories_sizes":[],"default_left":[true,false,true,false,false,false,false],"id":57,"left_children":[1,3,5,-1,-1,-1,-1],"loss_changes":[2.653866E0,2.477923E0,4.7603974E0,0E0,0E0,0E0,0E0],"parents":[2147483647,0,0,1,1,2,2],"right_children":[2,4,6,-1,-1,-1,-1],"split_conditions":[9.134419E-1,4.755E2,8E1,1.1008521E-2,1.0675096E-1,-6.584306E-2,3.7481155E-2],"split_indices":[5,2,0,0,0,0,0],"split_type":[0,0,0,0,0,0,0],"sum_hessian":[3.382562E1,1.7150276E1,1.667534E1,1.4754949E1,2.3953278E0,1.0037727E1,6.6376133E0],"tree_param":{"num_deleted":"0","num_feature":"7","num_nodes":"7","size_leaf_vector":"0"}},{"base_weights":[2.7824525E-2,8.380753E-1,-6.40709E-2,1.0587575E0,-2.799438E-1,-3.9363334E-1,2.4303406E-1],"categories":[],"categories_nodes":[],"categories_segments":[],"categories_sizes":[],"default_left":[true,true,false,false,false,false,false],"id":58,"left_children":[1,3,5,-1,-1,-1,-1],"loss_changes":[2.6105394E0,1.1769423E0,3.3111491E0,0E0,0E0,0E0,0E0],"parents":[2147483647,0,0,1,1,2,2],"right_children":[2,4,6,-1,-1,-1,-1],"split_conditions":[2.35E2,7.0555553E0,2.815E2,1.0587575E-1,-2.799438E-2,-3.9363336E-2,2.4303406E-2],"split_indices":[6,4,2,0,0,0,0],"split_type":[0,0,0,0,0,0,0],"sum_hessian":[3.3339245E1,2.5689235E0,3.0770323E1,2.1897094E0,3.7921402E-1,1.4706565E1,1.6063757E1],"tree_param":{"num_deleted":"0","num_feature":"7","num_nodes":"7","size_leaf_vector":"0"}},{"base_weights":[2.7250359E-2,1.1990268E-1,-7.4321264E-1,-3.8121194E-1,3.0172122E-1,1.6071948E-1,-8.340641E-1],"categories":[],"categories_nodes":[],"categories_segments":[],"categories_sizes":[],"default_left":[true,true,true,false,false,false,false],"id":59,"left_children":[1,3,5,-1,-1,-1,-1],"loss_changes":[2.5376718E0,2.9831944E0,4.4784212E-1,0E0,0E0,0E0,0E0],"parents":[2147483647,0,0,1,1,2,2],"right_children":[2,4,6,-1,-1,-1,-1],"split_conditions":[6.35E1,3.65E1,5.6153846E0,-3.8121194E-2,3.0172123E-2,1.607195E-2,-8.340641E-2],"split_indices":[1,1,4,0,0,0,0],"split_type":[0,0,0,0,0,0,0],"sum_hessian":[3.330065E1,3.0479683E1,2.82097E0,7.822695E0,2.2656988E1,1.87399E-1,2.6335711E0],"tree_param":{"num_deleted":"0","num_feature":"7","num_nodes":"7","size_leaf_vector":"0"}},{"base_weights":[2.2491867E-2,3.742505E-1,-1.7484911E-1,-4.658699E-1,5.4217196E-1,6.3900286E-1,-3.1262323E-1],"categories":[],"categories_nodes":[],"categories_segments":[],"categories_sizes":[],"default_left":[true,true,true,false,false,false,false],"id":60,"left_children":[1,3,5,-1,-1,-1,-1],"loss_changes":[2.4288425E0,2.0236998E0,2.7217758E0,0E0,0E0,0E0,0E0],"parents":[2147483647,0,0,1,1,2,2],"right_children":[2,4,6,-1,-1,-1,-1],"split_conditions":[9.0121305E-1,3.25E1,2.95E1,-4.658699E-2,5.4217197E-2,6.3900284E-2,-3.1262323E-2],"split_indices":[5,1,0,0,0,0,0],"split_type":[0,0,0,0,0,0,0],"sum_hessian":[3.304679E1,1.1554509E1,2.1492281E1,1.6292001E0,9.925309E0,2.5848927E0,1.8907389E1],"tree_param":{"num_deleted":"0","num_feature":"7","num_nodes":"7","size_leaf_vector":"0"}},{"base_weights":[2.192739E-2,9.928814E-1,-4.808972E-2,1.1305712E0,-1.3195583E-1,7.8931525E-2,-7.4116796E-1],"categories":[],"categories_nodes":[],"categories_segments":[],"categories_sizes":[],"default_left":[true,true,true,false,false,false,false],"id":61,"left_children":[1,3,5,-1,-1,-1,-1],"loss_changes":[2.3493648E0,5.090258E-1,2.9224966E0,0E0,0E0,0E0,0E0],"parents":[2147483647,0,0,1,1,2,2],"right_children":[2,4,6,-1,-1,-1,-1],"split_conditions":[2.075E2,7.083333E0,6.05E1,1.1305713E-1,-1.3195584E-2,7.893153E-3,-7.4116796E-2],"split_indices":[6,4,1,0,0,0,0],"split_type":[0,0,0,0,0,0,0],"sum_hessian":[3.285558E1,1.3233685E0,3.1532211E1,1.1745018E0,1.4886686E-1,2.739721E1,4.135003E0],"tree_param":{"num_deleted":"0","num_feature":"7","num_nodes":"7","size_leaf_vector":"0"}},{"base_weights":[2.0844383E-2,1.1187939E-1,-7.0132995E-1,-1.6468172E-1,4.553645E-1,4.8389676E-1,-9.991727E-1],"categories":[],"categories_nodes":[],"categories_segments":[],"categories_sizes":[],"default_left":[true,false,true,false,false,false,false],"id":62,"left_children":[1,3,5,-1,-1,-1,-1],"loss_changes":[2.2839198E0,2.986916E0,1.857754E0,0E0,0E0,0E0,0E0],"parents":[2147483647,0,0,1,1,2,2],"right_children":[2,4,6,-1,-1,-1,-1],"split_conditions":[5.285E2,2.815E2,5.55E1,-1.6468173E-2,4.553645E-2,4.8389677E-2,-9.991727E-2],"split_indices":[6,2,0,0,0,0,0],"split_type":[0,0,0,0,0,0,0],"sum_hessian":[3.2546543E1,2.9653585E1,2.8929577E0,1.6715477E1,1.2938108E1,4.555367E-1,2.437421E0],"tree_param":{"num_deleted":"0","num_feature":"7","num_nodes":"7","size_leaf_vector":"0"}},{"base_weights":[1.8328618E-2,7.903665E-1,-6.562943E-2,9.9500674E-1,-2.5878766E-1,-7.801377E-1,5.1230323E-2],"categories":[],"categories_nodes":[],"categories_segments":[],"categories_sizes":[],"default_left":[true,true,false,false,false,false,false],"id":63,"left_children":[1,3,5,-1,-1,-1,-1],"loss_changes":[2.219031E0,9.7801876E-1,2.6349082E0,0E0,0E0,0E0,0E0],"parents":[2147483647,0,0,1,1,2,2],"right_children":[2,4,6,-1,-1,-1,-1],"split_conditions":[2.365E2,7.0555553E0,2.605E2,9.950068E-2,-2.5878767E-2,-7.801377E-2,5.1230323E-3],"split_indices":[6,4,6,0,0,0,0],"split_type":[0,0,0,0,0,0,0],"sum_hessian":[3.2434128E1,2.3559666E0,3.0078161E1,2.01462E0,3.413464E-1,3.4300675E0,2.6648094E1],"tree_param":{"num_deleted":"0","num_feature":"7","num_nodes":"7","size_leaf_vector":"0"}},{"base_weights":[1.6824136E-2,9.869333E-2,-7.4374604E-1,-4.131275E-2,9.453813E-1],"categories":[],"categories_nodes":[],"categories_segments":[],"categories_sizes":[],"default_left":[true,false,false,false,false],"id":64,"left_children":[1,3,-1,-1,-1],"loss_changes":[2.1553054E0,3.721967E0,0E0,0E0,0E0],"parents":[2147483647,0,0,1,1],"right_children":[2,4,-1,-1,-1],"split_conditions":[7.05E0,1.4830439E0,-7.437461E-2,-4.131275E-3,9.453813E-2],"split_indices":[4,3,0,0,0],"split_type":[0,0,0,0,0],"sum_hessian":[3.2434944E1,3.0068546E1,2.366397E0,2.6618233E1,3.4503138E0],"tree_param":{"num_deleted":"0","num_feature":"7","num_nodes":"5","size_leaf_vector":"0"}},{"base_weights":[1.5623501E-2,5.6712234E-1,-1.0224628E-1,7.763235E-1,-4.0050635E-1,-3.7802356E-1,2.3888242E-1],"categories":[],"categories_nodes":[],"categories_segments":[],"categories_sizes":[],"default_left":[true,true,false,false,false,false,false],"id":65,"left_children":[1,3,5,-1,-1,-1,-1],"loss_changes":[2.2203815E0,1.527607E0,2.7483718E0,0E0,0E0,0E0,0E0],"parents":[2147483647,0,0,1,1,2,2],"right_children":[2,4,6,-1,-1,-1,-1],"split_conditions":[8.8463885E-1,6.25E1,1.2796907E0,7.763235E-2,-4.0050637E-2,-3.7802357E-2,2.3888243E-2],"split_indices":[5,1,3,0,0,0,0],"split_type":[0,0,0,0,0,0,0],"sum_hessian":[3.226504E1,5.010424E0,2.7254616E1,4.282297E0,7.2812706E-1,1.50111E1,1.2243517E1],"tree_param":{"num_deleted":"0","num_feature":"7","num_nodes":"7","size_leaf_vector":"0"}},{"base_weights":[1.52814435E-2,4.3727347E-1,-1.4117096E-1,-6.186619E-1,6.996016E-1,3.8293758E-1,-3.3954644E-1],"categories":[],"categories_nodes":[],"categories_segments":[],"categories_sizes":[],"default_left":[true,false,true,false,false,false,false],"id":66,"left_children":[1,3,5,-1,-1,-1,-1],"loss_changes":[2.2500966E0,2.9837608E0,2.722737E0,0E0,0E0,0E0,0E0],"parents":[2147483647,0,0,1,1,2,2],"right_children":[2,4,6,-1,-1,-1,-1],"split_conditions":[4.480769E0,2.605E2,2.715E2,-6.186619E-2,6.996016E-2,3.829376E-2,-3.3954646E-2],"split_indices":[4,6,6,0,0,0,0],"split_type":[0,0,0,0,0,0,0],"sum_hessian":[3.2146183E1,8.209132E0,2.393705E1,1.3632725E0,6.845859E0,6.317041E0,1.7620008E1],"tree_param":{"num_deleted":"0","num_feature":"7","num_nodes":"7","size_leaf_vector":"0"}},{"base_weights":[1.4836808E-2,9.261237E-2,-7.272585E-1,-3.5707578E-2,8.744806E-1],"categories":[],"categories_nodes":[],"categories_segments":[],"categories_sizes":[],"default_left":[true,false,false,false,false],"id":67,"left_children":[1,3,-1,-1,-1],"loss_changes":[1.9608922E0,3.0995162E0,0E0,0E0,0E0],"parents":[2147483647,0,0,1,1],"right_children":[2,4,-1,-1,-1],"split_conditions":[7.05E0,1.4830439E0,-7.2725855E-2,-3.5707578E-3,8.744806E-2],"split_indices":[4,3,0,0,0],"split_type":[0,0,0,0,0],"sum_hessian":[3.180737E1,2.95822E1,2.2251713E0,2.6231434E1,3.3507638E0],"tree_param":{"num_deleted":"0","num_feature":"7","num_nodes":"5","size_leaf_vector":"0"}},{"base_weights":[1.3675482E-2,5.508255E-1,-9.5731616E-2,7.186886E-1,-5.428297E-1,-4.47517E-1,1.2212423E-1],"categories":[],"categories_nodes":[],"categories_segments":[],"categories_sizes":[],"default_left":[true,true,false,false,false,false,false],"id":68,"left_children":[1,3,5,-1,-1,-1,-1],"loss_changes":[1.9715524E0,1.4316106E0,2.198822E0,0E0,0E0,0E0,0E0],"parents":[2147483647,0,0,1,1,2,2],"right_children":[2,4,6,-1,-1,-1,-1],"split_conditions":[8.8463885E-1,7.2E1,2.945E2,7.186886E-2,-5.428297E-2,-4.47517E-2,1.2212424E-2],"split_indices":[5,1,6,0,0,0,0],"split_type":[0,0,0,0,0,0,0],"sum_hessian":[3.1650763E1,4.6730595E0,2.6977703E1,4.3484764E0,3.2458326E-1,9.914291E0,1.7063412E1],"tree_param":{"num_deleted":"0","num_feature":"7","num_nodes":"7","size_leaf_vector":"0"}},{"base_weights":[1.2282068E-2,8.35895E-1,-5.8827728E-2,1.0121969E0,-1.9015142E-1,2.2219925E-1,-3.1356254E-1],"categories":[],"categories_nodes":[],"categories_segments":[],"categories_sizes":[],"default_left":[true,true,true,false,false,false,false],"id":69,"left_children":[1,3,5,-1,-1,-1,-1],"loss_changes":[1.9519676E0,6.7145836E-1,2.2775216E0,0E0,0E0,0E0,0E0],"parents":[2147483647,0,0,1,1,2,2],"right_children":[2,4,6,-1,-1,-1,-1],"split_conditions":[2.17E2,7.0555553E0,5.1180553E0,1.0121969E-1,-1.9015143E-2,2.2219924E-2,-3.1356256E-2],"split_indices":[6,4,4,0,0,0,0],"split_type":[0,0,0,0,0,0,0],"sum_hessian":[3.1489206E1,1.6478914E0,2.9841316E1,1.4177775E0,2.3011383E-1,1.4249165E1,1.5592152E1],"tree_param":{"num_deleted":"0","num_feature":"7","num_nodes":"7","size_leaf_vector":"0"}},{"base_weights":[1.3596246E-2,9.954411E-2,-6.5254253E-1,-1.570847E-1,4.2540368E-1,4.821774E-1,-9.4008857E-1],"categories":[],"categories_nodes":[],"categories_segments":[],"categories_sizes":[],"default_left":[true,false,true,false,false,false,false],"id":70,"left_children":[1,3,5,-1,-1,-1,-1],"loss_changes":[1.905929E0,2.5210435E0,1.6954523E0,0E0,0E0,0E0,0E0],"parents":[2147483647,0,0,1,1,2,2],"right_children":[2,4,6,-1,-1,-1,-1],"split_conditions":[5.285E2,2.815E2,5.55E1,-1.570847E-2,4.2540368E-2,4.821774E-2,-9.4008856E-2],"split_indices":[6,2,0,0,0,0,0],"split_type":[0,0,0,0,0,0,0],"sum_hessian":[3.1154922E1,2.8347925E1,2.8069963E0,1.6148335E1,1.219959E1,4.3065742E-1,2.3763387E0],"tree_param":{"num_deleted":"0","num_feature":"7","num_nodes":"7","size_leaf_vector":"0"}},{"base_weights":[1.183366E-2,-9.1869754E-1,6.990318E-2,3.413703E-1,-1.4290233E0,-2.1003784E-1,4.3560085E-1],"categories":[],"categories_nodes":[],"categories_segments":[],"categories_sizes":[],"default_left":[true,true,false,false,false,false,false],"id":71,"left_children":[1,3,5,-1,-1,-1,-1],"loss_changes":[1.7969173E0,1.7444854E0,3.2765129E0,0E0,0E0,0E0,0E0],"parents":[2147483647,0,0,1,1,2,2],"right_children":[2,4,6,-1,-1,-1,-1],"split_conditions":[2.75E1,2.55E1,1.2780848E0,3.4137033E-2,-1.4290233E-1,-2.1003785E-2,4.3560084E-2],"split_indices":[1,1,3,0,0,0,0],"split_type":[0,0,0,0,0,0,0],"sum_hessian":[3.106591E1,9.542321E-1,3.011168E1,3.704965E-1,5.837355E-1,1.7296719E1,1.28149605E1],"tree_param":{"num_deleted":"0","num_feature":"7","num_nodes":"7","size_leaf_vector":"0"}},{"base_weights":[8.179229E-3,7.93572E-2,-7.436592E-1,7.2619617E-1,-3.3044677E-2,3.0034019E-2,-7.831825E-1],"categories":[],"categories_nodes":[],"categories_segments":[],"categories_sizes":[],"default_left":[true,true,true,false,false,false,false],"id":72,"left_children":[1,3,5,-1,-1,-1,-1],"loss_changes":[1.7799294E0,2.2255633E0,1.1151564E-1,0E0,0E0,0E0,0E0],"parents":[2147483647,0,0,1,1,2,2],"right_children":[2,4,6,-1,-1,-1,-1],"split_conditions":[6.55E1,8.8245606E-1,2.8E1,7.261962E-2,-3.3044678E-3,3.003402E-3,-7.831825E-2],"split_indices":[1,5,0,0,0,0,0],"split_type":[0,0,0,0,0,0,0],"sum_hessian":[3.1158014E1,2.9280428E1,1.8775846E0,3.526392E0,2.5754038E1,1.0292168E-1,1.7746629E0],"tree_param":{"num_deleted":"0","num_feature":"7","num_nodes":"7","size_leaf_vector":"0"}},{"base_weights":[7.363682E-3,7.9394966E-1,-5.9795618E-2,9.6636707E-1,-1.8609145E-1,4.700635E-2,-6.8132895E-1],"categories":[],"categories_nodes":[],"categories_segments":[],"categories_sizes":[],"default_left":[true,true,true,false,false,false,false],"id":73,"left_children":[1,3,5,-1,-1,-1,-1],"loss_changes":[1.7306858E0,6.152029E-1,2.0424712E0,0E0,0E0,0E0,0E0],"parents":[2147483647,0,0,1,1,2,2],"right_children":[2,4,6,-1,-1,-1,-1],"split_conditions":[2.17E2,7.0555553E0,6.05E1,9.6636705E-2,-1.8609146E-2,4.700635E-3,-6.81329E-2],"split_indices":[6,4,1,0,0,0,0],"split_type":[0,0,0,0,0,0,0],"sum_hessian":[3.0862968E1,1.5765183E0,2.928645E1,1.3525231E0,2.2399524E-1,2.5780752E1,3.505698E0],"tree_param":{"num_deleted":"0","num_feature":"7","num_nodes":"7","size_leaf_vector":"0"}},{"base_weights":[7.083266E-3,-8.719466E-1,6.3843705E-2,3.31527E-1,-1.3392969E0,-1.9285887E-1,4.04208E-1],"categories":[],"categories_nodes":[],"categories_segments":[],"categories_sizes":[],"default_left":[true,true,false,false,false,false,false],"id":74,"left_children":[1,3,5,-1,-1,-1,-1],"loss_changes":[1.634699E0,1.5620471E0,2.7567773E0,0E0,0E0,0E0,0E0],"parents":[2147483647,0,0,1,1,2,2],"right_children":[2,4,6,-1,-1,-1,-1],"split_conditions":[2.75E1,2.55E1,1.2780848E0,3.31527E-2,-1.339297E-1,-1.9285887E-2,4.04208E-2],"split_indices":[1,1,3,0,0,0,0],"split_type":[0,0,0,0,0,0,0],"sum_hessian":[3.0647633E1,9.878143E-1,2.9659819E1,3.575953E-1,6.3021904E-1,1.7154943E1,1.2504874E1],"tree_param":{"num_deleted":"0","num_feature":"7","num_nodes":"7","size_leaf_vector":"0"}},{"base_weights":[4.0568057E-3,3.885952E-1,-1.3245383E-1,-5.989499E-1,6.5962905E-1,3.32912E-1,-3.0374822E-1],"categories":[],"categories_nodes":[],"categories_segments":[],"categories_sizes":[],"default_left":[true,false,true,false,false,false,false],"id":75,"left_children":[1,3,5,-1,-1,-1,-1],"loss_changes":[1.7175969E0,2.6888423E0,2.027813E0,0E0,0E0,0E0,0E0],"parents":[2147483647,0,0,1,1,2,2],"right_children":[2,4,6,-1,-1,-1,-1],"split_conditions":[4.480769E0,2.605E2,2.715E2,-5.989499E-2,6.59629E-2,3.3291202E-2,-3.0374823E-2],"split_indices":[4,6,6,0,0,0,0],"split_type":[0,0,0,0,0,0,0],"sum_hessian":[3.0739614E1,7.569729E0,2.3169886E1,1.3695896E0,6.200139E0,5.98004E0,1.7189846E1],"tree_param":{"num_deleted":"0","num_feature":"7","num_nodes":"7","size_leaf_vector":"0"}},{"base_weights":[4.446608E-3,7.674431E-2,-7.058176E-1,-4.4846687E-2,8.0478835E-1],"categories":[],"categories_nodes":[],"categories_segments":[],"categories_sizes":[],"default_left":[true,false,false,false,false],"id":76,"left_children":[1,3,-1,-1,-1],"loss_changes":[1.6697434E0,2.6437378E0,0E0,0E0,0E0],"parents":[2147483647,0,0,1,1],"right_children":[2,4,-1,-1,-1],"split_conditions":[7.05E0,1.4830439E0,-7.058176E-2,-4.484669E-3,8.047884E-2],"split_indices":[4,3,0,0,0],"split_type":[0,0,0,0,0],"sum_hessian":[3.0461758E1,2.8457066E1,2.0046914E0,2.518869E1,3.2683747E0],"tree_param":{"num_deleted":"0","num_feature":"7","num_nodes":"5","size_leaf_vector":"0"}},{"base_weights":[4.1149366E-3,-2.094378E-1,2.434368E-1,1.9492424E-1,-6.7552584E-1,8.118628E-1,-2.6236683E-1],"categories":[],"categories_nodes":[],"categories_segments":[],"categories_sizes":[],"default_left":[false,false,true,false,false,false,false],"id":77,"left_children":[1,3,5,-1,-1,-1,-1],"loss_changes":[1.6526161E0,3.3541572E0,4.594689E0,0E0,0E0,0E0,0E0],"parents":[2147483647,0,0,1,1,2,2],"right_children":[2,4,6,-1,-1,-1,-1],"split_conditions":[2.815E2,2.195E2,4.595E2,1.9492423E-2,-6.755259E-2,8.118629E-2,-2.6236683E-2],"split_indices":[2,2,2,0,0,0,0],"split_type":[0,0,0,0,0,0,0],"sum_hessian":[3.033827E1,1.6098265E1,1.4240005E1,8.931439E0,7.166825E0,6.42003E0,7.8199744E0],"tree_param":{"num_deleted":"0","num_feature":"7","num_nodes":"7","size_leaf_vector":"0"}},{"base_weights":[4.543252E-3,8.5036345E-2,-6.042314E-1,-1.4708714E-1,3.960463E-1,4.88451E-1,-8.9006424E-1],"categories":[],"categories_nodes":[],"categories_segments":[],"categories_sizes":[],"default_left":[true,false,true,false,false,false,false],"id":78,"left_children":[1,3,5,-1,-1,-1,-1],"loss_changes":[1.5723703E0,2.1006625E0,1.6053916E0,0E0,0E0,0E0,0E0],"parents":[2147483647,0,0,1,1,2,2],"right_children":[2,4,6,-1,-1,-1,-1],"split_conditions":[5.285E2,2.815E2,5.55E1,-1.4708715E-2,3.960463E-2,4.88451E-2,-8.9006424E-2],"split_indices":[6,2,0,0,0,0,0],"split_type":[0,0,0,0,0,0,0],"sum_hessian":[3.0039217E1,2.7291067E1,2.7481496E0,1.5929265E1,1.1361802E1,4.228413E-1,2.3253083E0],"tree_param":{"num_deleted":"0","num_feature":"7","num_nodes":"7","size_leaf_vector":"0"}},{"base_weights":[3.7442292E-3,3.1067362E-1,-1.5702568E-1,-4.7973248E-1,4.9589917E-1,-2.5338984E-1,7.242139E-1],"categories":[],"categories_nodes":[],"categories_segments":[],"categories_sizes":[],"default_left":[true,true,true,false,false,false,false],"id":79,"left_children":[1,3,5,-1,-1,-1,-1],"loss_changes":[1.5768642E0,1.8455002E0,1.965693E0,0E0,0E0,0E0,0E0],"parents":[2147483647,0,0,1,1,2,2],"right_children":[2,4,6,-1,-1,-1,-1],"split_conditions":[9.0121305E-1,3.25E1,2.49E2,-4.797325E-2,4.9589917E-2,-2.5338983E-2,7.2421394E-2],"split_indices":[5,1,0,0,0,0,0],"split_type":[0,0,0,0,0,0,0],"sum_hessian":[2.9967276E1,9.980627E0,1.9986649E1,1.5929786E0,8.387649E0,1.8658762E1,1.3278867E0],"tree_param":{"num_deleted":"0","num_feature":"7","num_nodes":"7","size_leaf_vector":"0"}},{"base_weights":[5.2848784E-3,7.167068E-2,-6.801298E-1,-4.0962014E-2,7.8700984E-1],"categories":[],"categories_nodes":[],"categories_segments":[],"categories_sizes":[],"default_left":[true,false,false,false,false],"id":80,"left_children":[1,3,-1,-1,-1],"loss_changes":[1.4523015E0,2.370963E0,0E0,0E0,0E0],"parents":[2147483647,0,0,1,1],"right_children":[2,4,-1,-1,-1],"split_conditions":[7.05E0,1.4975586E0,-6.801298E-2,-4.0962016E-3,7.870098E-2],"split_indices":[4,3,0,0,0],"split_type":[0,0,0,0,0],"sum_hessian":[2.9846163E1,2.802704E1,1.819123E0,2.502889E1,2.99815E0],"tree_param":{"num_deleted":"0","num_feature":"7","num_nodes":"5","size_leaf_vector":"0"}},{"base_weights":[4.922748E-3,4.9940872E-1,-8.691512E-2,6.7327446E-1,-4.738986E-1,-3.860345E-1,1.1084172E-1],"categories":[],"categories_nodes":[],"categories_segments":[],"categories_sizes":[],"default_left":[true,true,false,false,false,false,false],"id":81,"left_children":[1,3,5,-1,-1,-1,-1],"loss_changes":[1.4393162E0,1.1589097E0,1.6266389E0,0E0,0E0,0E0,0E0],"parents":[2147483647,0,0,1,1,2,2],"right_children":[2,4,6,-1,-1,-1,-1],"split_conditions":[8.8463885E-1,7.2E1,2.945E2,6.732745E-2,-4.738986E-2,-3.860345E-2,1.1084172E-2],"split_indices":[5,1,6,0,0,0,0],"split_type":[0,0,0,0,0,0,0],"sum_hessian":[2.9738428E1,3.9629004E0,2.5775528E1,3.6238236E0,3.3907667E-1,9.879744E0,1.5895784E1],"tree_param":{"num_deleted":"0","num_feature":"7","num_nodes":"7","size_leaf_vector":"0"}},{"base_weights":[4.487667E-3,7.343894E-1,-5.84334E-2,8.876816E-1,-1.7055915E-1,1.8915416E-1,-2.8482887E-1],"categories":[],"categories_nodes":[],"categories_segments":[],"categories_sizes":[],"default_left":[true,true,true,false,false,false,false],"id":82,"left_children":[1,3,5,-1,-1,-1,-1],"loss_changes":[1.4491409E0,4.987266E-1,1.6858817E0,0E0,0E0,0E0,0E0],"parents":[2147483647,0,0,1,1,2,2],"right_children":[2,4,6,-1,-1,-1,-1],"split_conditions":[2.17E2,7.0555553E0,5.1180553E0,8.876816E-2,-1.7055916E-2,1.8915417E-2,-2.8482888E-2],"split_indices":[6,4,4,0,0,0,0],"split_type":[0,0,0,0,0,0,0],"sum_hessian":[2.9619299E1,1.5037528E0,2.8115547E1,1.3022424E0,2.0151041E-1,1.35078125E1,1.4607734E1],"tree_param":{"num_deleted":"0","num_feature":"7","num_nodes":"7","size_leaf_vector":"0"}},{"base_weights":[6.2190434E-3,8.257578E-2,-5.681339E-1,2.5582975E-1,-2.877447E-1,4.6750465E-1,-8.3809596E-1],"categories":[],"categories_nodes":[],"categories_segments":[],"categories_sizes":[],"default_left":[true,true,true,false,false,false,false],"id":83,"left_children":[1,3,5,-1,-1,-1,-1],"loss_changes":[1.3786004E0,1.8492345E0,1.4234935E0,0E0,0E0,0E0,0E0],"parents":[2147483647,0,0,1,1,2,2],"right_children":[2,4,6,-1,-1,-1,-1],"split_conditions":[5.285E2,5.25E1,5.55E1,2.5582975E-2,-2.877447E-2,4.6750467E-2,-8.38096E-2],"split_indices":[6,1,0,0,0,0,0],"split_type":[0,0,0,0,0,0,0],"sum_hessian":[2.936517E1,2.6675104E1,2.690065E0,1.838355E1,8.2915535E0,4.0492693E-1,2.285138E0],"tree_param":{"num_deleted":"0","num_feature":"7","num_nodes":"7","size_leaf_vector":"0"}},{"base_weights":[4.4287057E-3,-1.880232E-1,2.281804E-1,1.816275E-1,-6.063505E-1,7.736938E-1,-2.329466E-1],"categories":[],"categories_nodes":[],"categories_segments":[],"categories_sizes":[],"default_left":[false,false,true,false,false,false,false],"id":84,"left_children":[1,3,5,-1,-1,-1,-1],"loss_changes":[1.3385737E0,2.6962566E0,3.7937117E0,0E0,0E0,0E0,0E0],"parents":[2147483647,0,0,1,1,2,2],"right_children":[2,4,6,-1,-1,-1,-1],"split_conditions":[2.815E2,2.195E2,4.575E2,1.816275E-2,-6.063505E-2,7.7369384E-2,-2.3294661E-2],"split_indices":[2,2,2,0,0,0,0],"split_type":[0,0,0,0,0,0,0],"sum_hessian":[2.9088884E1,1.5724073E1,1.3364812E1,8.648095E0,7.075978E0,5.8117166E0,7.5530953E0],"tree_param":{"num_deleted":"0","num_feature":"7","num_nodes":"7","size_leaf_vector":"0"}},{"base_weights":[4.9100597E-3,-1.719954E-1,2.3694307E-1,3.178492E-2,-1.1327585E0,9.1283053E-1,-1.8183526E-1],"categories":[],"categories_nodes":[],"categories_segments":[],"categories_sizes":[],"default_left":[false,false,true,false,false,false,false],"id":85,"left_children":[1,3,5,-1,-1,-1,-1],"loss_changes":[1.2654138E0,3.4637692E0,3.9381742E0,0E0,0E0,0E0,0E0],"parents":[2147483647,0,0,1,1,2,2],"right_children":[2,4,6,-1,-1,-1,-1],"split_conditions":[1.277981E0,1.2585582E0,1.3749034E0,3.178492E-3,-1.1327585E-1,9.128305E-2,-1.8183528E-2],"split_indices":[3,3,3,0,0,0,0],"split_type":[0,0,0,0,0,0,0],"sum_hessian":[2.883491E1,1.6507833E1,1.2327076E1,1.4416891E1,2.0909429E0,4.2645526E0,8.062523E0],"tree_param":{"num_deleted":"0","num_feature":"7","num_nodes":"7","size_leaf_vector":"0"}},{"base_weights":[3.62292E-3,6.446801E-2,-6.7608917E-1,6.918589E-1,-3.495519E-2,4.4086188E-2,-7.245212E-1],"categories":[],"categories_nodes":[],"categories_segments":[],"categories_sizes":[],"default_left":[true,true,true,false,false,false,false],"id":86,"left_children":[1,3,5,-1,-1,-1,-1],"loss_changes":[1.2700332E0,1.778947E0,1.1996162E-1,0E0,0E0,0E0,0E0],"parents":[2147483647,0,0,1,1,2,2],"right_children":[2,4,6,-1,-1,-1,-1],"split_conditions":[6.55E1,8.8245606E-1,2.8E1,6.918589E-2,-3.4955188E-3,4.408619E-3,-7.245212E-2],"split_indices":[1,5,0,0,0,0,0],"split_type":[0,0,0,0,0,0,0],"sum_hessian":[2.8655024E1,2.7131477E1,1.5235467E0,2.8962877E0,2.423519E1,1.01657055E-1,1.4218897E0],"tree_param":{"num_deleted":"0","num_feature":"7","num_nodes":"7","size_leaf_vector":"0"}},{"base_weights":[3.3140671E-3,-8.4381774E-2,4.6556774E-1,5.993444E-2,-7.1584E-1,9.938873E-1,-6.007439E-1],"categories":[],"categories_nodes":[],"categories_segments":[],"categories_sizes":[],"default_left":[false,false,true,false,false,false,false],"id":87,"left_children":[1,3,5,-1,-1,-1,-1],"loss_changes":[1.2326269E0,2.3749268E0,3.3280036E0,0E0,0E0,0E0,0E0],"parents":[2147483647,0,0,1,1,2,2],"right_children":[2,4,6,-1,-1,-1,-1],"split_conditions":[4.755E2,4.595E2,5.135E2,5.993444E-3,-7.1584E-2,9.938873E-2,-6.007439E-2],"split_indices":[2,2,2,0,0,0,0],"split_type":[0,0,0,0,0,0,0],"sum_hessian":[2.8437803E1,2.4590168E1,3.8476353E0,2.0752407E1,3.83776E0,2.6182873E0,1.2293481E0],"tree_param":{"num_deleted":"0","num_feature":"7","num_nodes":"7","size_leaf_vector":"0"}},{"base_weights":[2.2242048E-3,-7.3409426E-1,5.6531716E-2,3.4038284E-1,-1.1568359E0,-1.8615292E-1,3.9121726E-1],"categories":[],"categories_nodes":[],"categories_segments":[],"categories_sizes":[],"default_left":[true,true,false,false,false,false,false],"id":88,"left_children":[1,3,5,-1,-1,-1,-1],"loss_changes":[1.2076465E0,1.3361349E0,2.354221E0,0E0,0E0,0E0,0E0],"parents":[2147483647,0,0,1,1,2,2],"right_children":[2,4,6,-1,-1,-1,-1],"split_conditions":[2.75E1,2.55E1,1.2780848E0,3.4038287E-2,-1.1568359E-1,-1.8615292E-2,3.912173E-2],"split_indices":[1,1,3,0,0,0,0],"split_type":[0,0,0,0,0,0,0],"sum_hessian":[2.8162693E1,1.0746663E0,2.7088026E1,3.584413E-1,7.16225E-1,1.5959437E1,1.1128589E1],"tree_param":{"num_deleted":"0","num_feature":"7","num_nodes":"7","size_leaf_vector":"0"}},{"base_weights":[8.428874E-5,-1.812671E-1,2.1929911E-1,-3.788693E-1,4.3737197E-1,5.7736444E-1,-3.8503945E-1],"categories":[],"categories_nodes":[],"categories_segments":[],"categories_sizes":[],"default_left":[false,false,true,false,false,false,false],"id":89,"left_children":[1,3,5,-1,-1,-1,-1],"loss_changes":[1.2021165E0,2.1886659E0,3.1846788E0,0E0,0E0,0E0,0E0],"parents":[2147483647,0,0,1,1,2,2],"right_children":[2,4,6,-1,-1,-1,-1],"split_conditions":[2.815E2,1.4834514E0,5.738636E0,-3.788693E-2,4.37372E-2,5.7736445E-2,-3.8503945E-2],"split_indices":[2,3,4,0,0,0,0],"split_type":[0,0,0,0,0,0,0],"sum_hessian":[2.8238268E1,1.5548476E1,1.2689791E1,1.2078126E1,3.4703503E0,7.996543E0,4.693248E0],"tree_param":{"num_deleted":"0","num_feature":"7","num_nodes":"7","size_leaf_vector":"0"}},{"base_weights":[1.3373556E-3,6.317693E-2,-6.5137553E-1,-4.830232E-2,7.10187E-1],"categories":[],"categories_nodes":[],"categories_segments":[],"categories_sizes":[],"default_left":[true,false,false,false,false],"id":90,"left_children":[1,3,-1,-1,-1],"loss_changes":[1.2151159E0,2.0163362E0,0E0,0E0,0E0],"parents":[2147483647,0,0,1,1],"right_children":[2,4,-1,-1,-1],"split_conditions":[7.05E0,1.4830439E0,-6.513756E-2,-4.830232E-3,7.10187E-2],"split_indices":[4,3,0,0,0],"split_type":[0,0,0,0,0],"sum_hessian":[2.80848E1,2.6479298E1,1.6055031E0,2.3376837E1,3.1024623E0],"tree_param":{"num_deleted":"0","num_feature":"7","num_nodes":"5","size_leaf_vector":"0"}},{"base_weights":[1.1962032E-3,4.7240454E-1,-8.347073E-2,6.916416E-1,-3.2076144E-1,-5.6196016E-1,3.160333E-2],"categories":[],"categories_nodes":[],"categories_segments":[],"categories_sizes":[],"default_left":[true,true,false,false,false,false,false],"id":91,"left_children":[1,3,5,-1,-1,-1,-1],"loss_changes":[1.1963208E0,1.0159957E0,1.4180282E0,0E0,0E0,0E0,0E0],"parents":[2147483647,0,0,1,1,2,2],"right_children":[2,4,6,-1,-1,-1,-1],"split_conditions":[8.8463885E-1,6.25E1,2.605E2,6.9164164E-2,-3.2076146E-2,-5.6196015E-2,3.160333E-3],"split_indices":[5,1,6,0,0,0,0],"split_type":[0,0,0,0,0,0,0],"sum_hessian":[2.7997784E1,3.566895E0,2.4430887E1,2.8947604E0,6.721348E-1,3.9835255E0,2.0447363E1],"tree_param":{"num_deleted":"0","num_feature":"7","num_nodes":"7","size_leaf_vector":"0"}},{"base_weights":[7.896303E-4,6.808105E-1,-5.9250765E-2,8.1811756E-1,-1.5620351E-1,-5.443057E-1,4.5031328E-2],"categories":[],"categories_nodes":[],"categories_segments":[],"categories_sizes":[],"default_left":[true,true,false,false,false,false,false],"id":92,"left_children":[1,3,5,-1,-1,-1,-1],"loss_changes":[1.219801E0,4.0634584E-1,1.4137267E0,0E0,0E0,0E0,0E0],"parents":[2147483647,0,0,1,1,2,2],"right_children":[2,4,6,-1,-1,-1,-1],"split_conditions":[2.17E2,7.0555553E0,2.605E2,8.1811756E-2,-1.5620351E-2,-5.443057E-2,4.503133E-3],"split_indices":[6,4,6,0,0,0,0],"split_type":[0,0,0,0,0,0,0],"sum_hessian":[2.7888054E1,1.4237195E0,2.6464334E1,1.242475E0,1.812444E-1,3.9361734E0,2.2528162E1],"tree_param":{"num_deleted":"0","num_feature":"7","num_nodes":"7","size_leaf_vector":"0"}},{"base_weights":[1.4117454E-3,7.4104294E-2,-5.400281E-1,2.3509605E-1,-2.7782905E-1,4.5077917E-1,-8.0660117E-1],"categories":[],"categories_nodes":[],"categories_segments":[],"categories_sizes":[],"default_left":[true,true,true,false,false,false,false],"id":93,"left_children":[1,3,5,-1,-1,-1,-1],"loss_changes":[1.1784383E0,1.5599613E0,1.2997347E0,0E0,0E0,0E0,0E0],"parents":[2147483647,0,0,1,1,2,2],"right_children":[2,4,6,-1,-1,-1,-1],"split_conditions":[5.285E2,5.25E1,5.55E1,2.3509605E-2,-2.7782906E-2,4.5077916E-2,-8.066012E-2],"split_indices":[6,1,0,0,0,0,0],"split_type":[0,0,0,0,0,0,0],"sum_hessian":[2.7924273E1,2.537995E1,2.5443227E0,1.7641733E1,7.7382164E0,3.9291367E-1,2.1514091E0],"tree_param":{"num_deleted":"0","num_feature":"7","num_nodes":"7","size_leaf_vector":"0"}},{"base_weights":[-4.9906553E-6,-7.0913106E-1,5.3683426E-2,3.1271097E-1,-1.0834414E0,-1.6124704E-1,3.555558E-1],"categories":[],"categories_nodes":[],"categories_segments":[],"categories_sizes":[],"default_left":[true,true,false,false,false,false,false],"id":94,"left_children":[1,3,5,-1,-1,-1,-1],"loss_changes":[1.1304458E0,1.1381278E0,1.8482391E0,0E0,0E0,0E0,0E0],"parents":[2147483647,0,0,1,1,2,2],"right_children":[2,4,6,-1,-1,-1,-1],"split_conditions":[2.75E1,2.55E1,1.2780848E0,3.1271096E-2,-1.0834414E-1,-1.6124705E-2,3.5555582E-2],"split_indices":[1,1,3,0,0,0,0],"split_type":[0,0,0,0,0,0,0],"sum_hessian":[2.7692514E1,1.0898123E0,2.6602703E1,3.3630088E-1,7.535114E-1,1.5811149E1,1.0791554E1],"tree_param":{"num_deleted":"0","num_feature":"7","num_nodes":"7","size_leaf_vector":"0"}},{"base_weights":[-1.8598286E-3,5.659587E-2,-6.360707E-1,-4.283954E-2,6.395255E-1],"categories":[],"categories_nodes":[],"categories_segments":[],"categories_sizes":[],"default_left":[true,false,false,false,false],"id":95,"left_children":[1,3,-1,-1,-1],"loss_changes":[1.1021132E0,1.6068189E0,0E0,0E0,0E0],"parents":[2147483647,0,0,1,1],"right_children":[2,4,-1,-1,-1],"split_conditions":[7.05E0,1.4830439E0,-6.3607074E-2,-4.283954E-3,6.395255E-2],"split_indices":[4,3,0,0,0],"split_type":[0,0,0,0,0],"sum_hessian":[2.7756971E1,2.62484E1,1.5085732E0,2.3214935E1,3.0334647E0],"tree_param":{"num_deleted":"0","num_feature":"7","num_nodes":"5","size_leaf_vector":"0"}},{"base_weights":[-1.8630408E-3,4.6180987E-1,-8.2683586E-2,6.752401E-1,-2.8954378E-1,-9.2276037E-1,-1.8778097E-2],"categories":[],"categories_nodes":[],"categories_segments":[],"categories_sizes":[],"default_left":[true,true,true,false,false,false,false],"id":96,"left_children":[1,3,5,-1,-1,-1,-1],"loss_changes":[1.1127484E0,9.0240365E-1,1.3391223E0,0E0,0E0,0E0,0E0],"parents":[2147483647,0,0,1,1,2,2],"right_children":[2,4,6,-1,-1,-1,-1],"split_conditions":[8.8463885E-1,6.25E1,8.857529E-1,6.752401E-2,-2.8954377E-2,-9.227604E-2,-1.8778098E-3],"split_indices":[5,1,5,0,0,0,0],"split_type":[0,0,0,0,0,0,0],"sum_hessian":[2.7674702E1,3.4081128E0,2.4266588E1,2.7330592E0,6.7505354E-1,7.6540583E-1,2.3501183E1],"tree_param":{"num_deleted":"0","num_feature":"7","num_nodes":"7","size_leaf_vector":"0"}},{"base_weights":[-3.3975425E-3,7.0404965E-1,-5.418978E-2,-1.3356414E0,2.5076328E-2],"categories":[],"categories_nodes":[],"categories_segments":[],"categories_sizes":[],"default_left":[true,false,true,false,false],"id":97,"left_children":[1,-1,3,-1,-1],"loss_changes":[1.0649425E0,0E0,2.8359284E0,0E0,0E0],"parents":[2147483647,0,0,2,2],"right_children":[2,-1,4,-1,-1],"split_conditions":[1.05E1,7.040497E-2,1.15E1,-1.3356414E-1,2.5076328E-3],"split_indices":[0,0,0,0,0],"split_type":[0,0,0,0,0],"sum_hessian":[2.7575272E1,9.8564166E-1,2.658963E1,6.2561196E-1,2.5964018E1],"tree_param":{"num_deleted":"0","num_feature":"7","num_nodes":"5","size_leaf_vector":"0"}},{"base_weights":[-5.023666E-3,-1.741491E-1,2.07602E-1,1.4856341E-1,-5.296187E-1,7.068065E-1,-2.1514799E-1],"categories":[],"categories_nodes":[],"categories_segments":[],"categories_sizes":[],"default_left":[false,false,true,false,false,false,false],"id":98,"left_children":[1,3,5,-1,-1,-1,-1],"loss_changes":[1.0631669E0,1.9658227E0,2.9185305E0,0E0,0E0,0E0,0E0],"parents":[2147483647,0,0,1,1,2,2],"right_children":[2,4,6,-1,-1,-1,-1],"split_conditions":[2.815E2,2.195E2,4.595E2,1.4856341E-2,-5.2961867E-2,7.068065E-2,-2.15148E-2],"split_indices":[2,2,2,0,0,0,0],"split_type":[0,0,0,0,0,0,0],"sum_hessian":[2.7559555E1,1.5450761E1,1.2108793E1,8.403616E0,7.047145E0,5.2442236E0,6.8645697E0],"tree_param":{"num_deleted":"0","num_feature":"7","num_nodes":"7","size_leaf_vector":"0"}},{"base_weights":[-3.7695153E-3,2.907456E-1,-1.3249901E-1,-6.5451545E-1,5.84124E-1,6.258388E-2,-7.265604E-1],"categories":[],"categories_nodes":[],"categories_segments":[],"categories_sizes":[],"default_left":[true,true,true,false,false,false,false],"id":99,"left_children":[1,3,5,-1,-1,-1,-1],"loss_changes":[1.113577E0,2.860858E0,2.411792E0,0E0,0E0,0E0,0E0],"parents":[2147483647,0,0,1,1,2,2],"right_children":[2,4,6,-1,-1,-1,-1],"split_conditions":[5.15E1,3.15E1,4.595E2,-6.545155E-2,5.8412403E-2,6.258388E-3,-7.265604E-2],"split_indices":[0,1,2,0,0,0,0],"split_type":[0,0,0,0,0,0,0],"sum_hessian":[2.7355967E1,7.9374986E0,1.9418468E1,1.5884798E0,6.3490186E0,1.5291551E1,4.126917E0],"tree_param":{"num_deleted":"0","num_feature":"7","num_nodes":"7","size_leaf_vector":"0"}}]},"name":"gbtree"},"learner_model_param":{"base_score":"5E-1","num_class":"0","num_feature":"7"},"objective":{"name":"binary:logistic","reg_loss_param":{"scale_pos_weight":"1"}}},"version":[1,5,1]}